796 200
que -3.5541925e-05 -4.6345514e-05 0.0021205724 0.004840515 -0.0030902491 -0.004518735 0.0035615829 0.007163484 -0.0027300154 -0.0013422627 0.0035528175 -0.0020794193 -0.0022608193 0.004297396 -0.002510018 -0.0016271278 0.0011149178 0.0014248809 -0.0038279593 -0.007547465 0.0046061967 0.0017248323 0.0033284402 0.0006362959 0.00355863 -0.0025248814 -0.00020044557 0.0024533304 -0.0050443043 -0.002157179 -0.0029079379 -0.0005050064 0.005684363 -0.004784895 -0.00070196 -0.0003180617 0.0047579966 -0.003313591 -0.00074387685 -0.00378767 -0.005928269 0.0024524315 -0.00477998 -0.0014079136 0.0017867766 -0.0007711785 -0.0040248213 0.0049695047 0.0031847067 0.005209484 -0.0038035393 0.0015608151 -0.0034193795 -0.0003362208 0.004488203 -0.0027881416 0.0019343273 -0.004529866 -0.002711877 0.0043900064 -0.0014552396 -0.00021405537 -0.0013484918 -0.0035942837 -0.002428363 0.0025570344 -0.0008001569 0.0046339664 -0.0029708936 0.0028637971 0.0025980026 0.005215198 0.0011370837 -0.0047641275 0.0027645505 0.00049707067 0.0054101595 -0.0019191192 -0.0033618123 -0.004858506 -0.0011254166 0.0006160426 0.001726692 0.005408813 -0.003997729 0.00029820894 0.003744768 -0.0018533289 -0.001442929 0.0038900438 0.0012216263 0.0016842955 0.002833549 0.0016019726 0.006960175 0.0036952686 -0.0042663584 -0.0042947615 0.0015164014 0.0041503077 -0.005905757 0.0039438694 0.0029069113 0.0017005819 0.0027952192 -0.0055575403 0.0013957255 0.0042640963 -0.0018970626 -0.004827137 -0.0007666586 -0.005620578 -0.003309782 0.0030411964 0.002626241 0.003480808 0.004318744 0.0014201943 -0.0019377988 -0.0010920078 0.0019298805 -0.0007650194 0.005185423 -0.005763371 0.0024687175 0.0022911634 -0.004101222 0.0025563736 -0.0011902286 0.0031792067 0.006350543 -0.0026379158 -0.0009985074 -0.003802394 0.0021787414 0.0024581002 0.0025189344 0.0019551776 0.0035586802 0.0037396755 0.0053946488 -0.0044880915 -0.005023249 -0.00045596124 -0.0016972227 0.002903974 0.0018903627 -0.0009337934 0.0009503041 0.0013386478 0.004826176 -0.0063270424 -0.00020113052 0.0031383177 -0.0021171584 0.006203738 0.0061654965 0.0044122203 -0.00053468806 0.004799524 -0.0037030545 0.0023828347 -0.002553172 -0.002292947 0.0012683661 0.003767979 0.0043219593 -0.0035548888 0.0034805257 0.0034882387 -0.0031088046 -0.0036711064 0.003493153 0.0029077497 0.0003767618 -0.0026898864 -0.005054255 -0.0003791647 0.0034903989 -0.0013325863 -0.005469202 0.0027153825 0.0031240792 -0.0025511284 0.0021218774 -0.0004624218 0.00030103966 -0.003876095 0.003356186 -0.0015359721 0.0019088665 -0.0008586901 -9.998902e-05 -0.005288229 -0.00015407782 0.0019136859 0.0036405318 -0.0026319295 -0.005055649 0.0022883676
de 0.00021596842 0.0014342141 -0.0038478058 -0.0004301617 0.005337594 0.0028000192 -0.0016676743 0.0038985414 -0.0043509128 0.003706447 -0.0025176387 -0.0028539868 0.004641958 0.0013931771 0.0037707859 -0.0036971064 0.002252087 0.0058968244 -0.003895992 -0.005248029 -0.002493227 -0.003182965 -0.0020113254 -0.0041281036 0.004384648 -0.0032798408 0.0045351363 0.0021087904 -0.004526693 0.0017554234 0.0035430242 -0.0037926147 -0.0028298784 -0.0021857042 -0.0037781142 -0.00015046324 0.000625292 0.0013432731 -7.328186e-05 -0.0018357101 -0.003818951 0.0008315744 -0.00077770714 0.004205932 0.003736269 0.0016877293 0.00041804925 -0.0011138336 -0.0015439069 6.609494e-05 0.0009769291 -0.0019973507 -0.004886507 -0.004629063 -0.0044505065 -0.0035843083 -0.0010835335 -0.003260914 -0.0041386792 -0.0022076273 0.0014420154 -0.0022419817 0.004812451 0.0010018413 -0.0052690874 0.006023442 0.003352776 0.0044742683 -0.004915517 0.0046538385 0.0018608368 0.0036142676 0.0038505748 0.00073656364 -0.0010319697 0.0042434223 0.006496052 0.00040000823 -0.003589541 -0.00030353988 -0.00011852485 -0.004942826 -0.0050714663 0.0016169084 -0.00051740016 -0.003503262 -0.001765731 -0.003195319 0.0043028826 0.00043966886 -0.0017742458 0.0044292263 0.00575201 -0.00038883087 0.0061208145 0.0038122036 0.003107664 -0.00049173343 0.0051290942 -0.002651197 -0.0057616793 0.006726371 0.00014252643 -0.0021360032 0.0014949406 -0.0045469604 0.002331762 0.004648058 0.0027190282 -0.0053920303 0.004347427 0.0010195797 0.0015978124 -0.0035567982 0.0051622344 -0.0012280226 0.005198635 -0.004999428 -0.004106166 0.0026928817 0.0014734194 0.00035559724 0.0057759034 0.0040564565 -0.005781247 0.0020824175 0.0014298842 0.002294443 0.0006395974 -2.5896014e-05 0.0015666648 -0.0022784988 -0.004268654 -0.0018407415 0.0021905133 0.005399685 0.003678128 -0.0039950116 -0.0059816716 0.0041063074 0.0030872466 0.0016268098 0.0027379568 -0.00153056 0.0034981833 0.00037453067 0.00041132548 -0.0012724482 -0.0013001967 -0.0006549245 0.0030083049 -0.0013645078 -0.0049363826 -0.0035059475 -0.0045233066 0.0019211988 0.0025968007 0.0059946445 0.002695383 -0.0012764311 0.00067757885 0.0032162438 0.0035160617 -0.0002665294 0.0015316997 -0.0018149455 -6.301858e-05 0.00329132 -0.0013204514 -0.004665906 0.0017724695 -0.00126426 0.0002548143 0.0046387156 -0.00044835862 -0.001687357 -0.0040377807 0.004422621 -0.0020708467 0.0015611886 -0.0035435376 0.0038240876 0.0028654633 0.0020724735 0.00070725044 -0.00082289596 0.0047425064 0.0036021534 0.0010310947 -0.0037594256 -0.002300471 -0.00058708567 -0.0016580508 -0.002513216 0.005986336 0.00030825214 0.003919384 -0.0050449194 -0.0015514483 -0.002816085
la -0.0033936794 0.0004565172 -0.0039105997 -0.0008419256 0.0031790603 0.002084998 0.00081638165 0.0032601834 -0.0021794394 0.0041305046 -0.0032972172 0.0012265679 -0.004086048 0.0018388444 -0.0026292573 -0.00269054 -0.0018754479 0.0036135213 0.0032103509 -0.004855152 0.0012615555 -0.004933622 0.0039098104 0.004790391 -0.0010536746 -0.0003200004 0.0006219462 0.002387147 -0.0054289917 0.00011129632 0.004265888 0.0010373603 0.0014145921 -0.0055306577 0.004615554 -0.0025642426 -0.0008404564 0.0014399946 -0.0010291017 -0.00051085174 1.6755594e-06 -0.0034038168 -0.005180771 0.005326603 0.004646656 -0.003911737 0.0015219694 0.00020432458 0.0029421945 -0.0030883246 0.0022146418 0.0016058366 0.003830547 -0.0029506572 -0.00053225027 -0.0042049587 -0.0049237497 -0.005495597 -0.0013014178 -0.003454193 0.0018083225 -0.0033938899 0.001821384 0.00058159226 -0.0030859483 0.0005946031 0.0047360742 0.0061632637 -0.0036263538 0.0059959847 -0.0030146488 0.00382574 3.2923692e-06 0.0015813502 0.0020566746 0.0036737842 0.00025020324 0.0030030669 0.0020075662 -0.0052032983 -0.0047163316 -0.004508133 0.0006253703 0.00023732874 -0.0045310273 -0.0045603313 0.004721052 0.0014076326 -0.0046810093 -0.002043146 0.0019253156 -0.0010619184 0.0036441863 -0.000790747 0.0031789723 -0.003039677 0.0032604977 0.0018401457 0.0013012605 0.0022840104 -0.0057780603 0.0028682556 -0.0001663449 -0.0055901147 -0.0054957727 -0.0028309869 0.0028586192 0.0029081786 -0.0036115644 -0.004984329 -0.0029181356 -0.0023567798 -0.0041153366 -0.005182555 -0.0005280549 -0.004298316 -0.002291122 -0.0048342524 -0.001256565 -0.0015485366 -0.0039705816 0.0008816726 0.004916579 0.0031252436 -0.0043772687 -0.0010472747 0.00017624718 -0.0044561746 0.00046057827 0.0030461862 0.0040287054 -0.004798113 -0.002795376 -0.004834721 0.00028561836 0.005477815 0.0023040562 0.0016920159 0.0014910753 -0.002407497 0.0059755486 -0.0045697503 -0.004020705 -0.0013407392 -0.00041229324 -0.0025524881 -0.0011726675 0.0036343976 -0.00019670204 -0.00048671596 0.0020336418 -0.005483092 0.003845885 0.005412419 -0.006192443 0.0029410576 0.006259912 -0.0028183134 -0.0035761406 -0.0030866908 0.004740339 0.00025902313 0.004356871 -0.0038727012 0.0014552969 0.0022595886 0.00068992644 0.0006430461 -0.0038801236 -0.0045764036 0.00019720805 0.0036553503 0.0047803293 0.0025299292 0.00022760958 0.0047570523 -0.0058599394 0.0024560636 0.0008719558 0.002409044 0.0030335865 -0.002694678 0.0033583574 -0.004207631 0.00089585886 -0.0038930045 -0.0022965001 0.0055169957 0.0008413724 0.0022348058 0.005676837 0.0043709124 -0.005052182 -0.0026318138 0.005956466 0.003028897 7.978394e-05 -0.0055537187 0.0012213046 -0.003259583
el 0.00426892 -0.0023991985 -0.00075951294 0.0008306061 0.0011480636 -0.00021148295 0.0033346256 0.0020399215 -0.0017771326 -0.000335854 0.0028044358 -0.00025803692 -0.0003592804 0.005440579 -0.0025076445 -0.0010509378 0.0043876073 0.004042466 0.0011080722 -0.0066800215 0.0013705033 -0.0017546372 0.0046476647 0.00073583226 0.0010206148 0.0005021475 -0.0006952648 -0.0028752983 -0.0010054178 -0.0011417208 0.003948091 0.0043301666 0.00038433104 0.00065700285 -0.0026795377 0.0013357082 -0.002874353 -0.004661597 -0.003568815 -0.005611431 0.0027889295 -0.002997026 0.0038331174 -0.002936661 0.0032249396 0.0043252897 -0.0040703886 -0.0048895204 -0.0016162691 -0.00083053974 5.7390964e-05 -0.0049661812 -0.0054882728 0.00081480853 -0.0039436324 -0.0050752196 -0.0013201766 -0.005252389 -0.0042570857 -0.004419127 -0.00070801284 -0.0025455977 0.0038392749 0.0009598653 -0.0029965767 0.004157604 -0.0033452786 -0.00087671785 -0.00485398 -0.0007655268 -0.001058181 0.004124264 6.571859e-05 0.002295225 0.003971807 -0.0035459914 0.003554348 0.001869816 -0.003098612 0.002911538 0.00246389 -0.0039299047 -0.00411749 0.002780199 -0.0017852717 -0.0034116204 0.0052793566 -0.0021525084 -0.0032166033 0.0002754345 -0.0010301442 0.0014410813 -0.00088890176 0.0009832141 0.00131728 0.0014079749 0.0042716092 -0.0034808973 2.634767e-05 0.0035666607 0.0028591205 -0.0005397687 0.0047994754 0.003267597 -0.002907666 -0.0018698337 0.0027970246 -0.0009803331 -0.0031962104 -0.0046398304 -0.00075557263 -0.001236135 0.0017839958 -0.0016359825 0.0007470096 0.0010556901 0.0031003673 -0.0019762022 -0.0032341413 -0.005335316 0.000597896 0.0045229024 0.0014708915 -0.005111877 -0.0047550327 0.0039460943 -0.0032379273 0.00345688 -0.0036714496 0.0041375416 -0.002198228 0.0012313906 -0.0010260463 -0.0040339837 -0.0014263516 0.0002223081 -0.0034666746 -0.0014641711 -0.0047807754 0.0006623045 0.0056501017 -0.0019510883 -0.00084862916 0.0015503644 0.0042612636 -0.0037598452 -0.0042408593 -0.0016517688 0.0047510453 0.0008415685 -0.003660447 -0.0018566273 0.0046612015 -0.0027664474 -0.00392701 0.0061975243 -0.0032157246 0.0029346154 0.00022406757 0.0040865964 0.004640649 -0.00086367957 -0.002200405 0.0046884953 0.00065202214 0.0039620735 -0.0045451643 0.0042906865 -0.000825248 -0.0028703173 0.00059945224 0.00038561327 0.0030836598 -0.0014838423 -0.0014853112 0.0016552286 0.003028241 -0.0018429079 0.0019801834 -0.0035934134 -0.0039805174 0.00042112678 -0.003872509 0.0019435026 0.0020724752 -0.00073742855 0.0027216605 0.005685101 0.0059177256 -0.00031447216 0.0021238877 -0.002071343 -0.0050540823 0.0020579863 -5.6285942e-05 9.276809e-05 -6.769517e-05 -0.003393457 0.0017617216 -0.002173958
los -0.004669507 0.004350612 0.001866593 0.0048235534 0.004637175 0.00081203517 0.0050332053 -0.00017134388 -0.0035170307 0.0026251883 0.0017023431 -0.0039207065 0.0048396145 -0.0010734375 0.0047543915 -0.0001148713 -0.0034934399 -0.00023802454 -0.0034107873 -0.0036302966 0.0012791055 0.0041017574 0.0045995717 -0.003121124 0.002114157 0.000507315 -0.000929706 -0.00495498 -0.0005064539 -0.00418512 0.0038096863 -0.0030246184 0.0034626566 0.0040980023 0.00027645065 0.0027554305 -0.00028305827 0.00346744 0.0014179767 -0.0055420836 -0.002139908 0.0018699957 -0.00031221428 3.9807306e-05 0.0008937233 -0.0014150118 0.00015250217 0.0022174767 -0.0016052931 -0.0015129207 0.00016167572 -0.00036943724 -0.0010995106 -0.0030342387 0.002330545 -0.0016015228 0.0009131403 -0.0005134904 0.0022839068 -0.003657383 -0.003963997 -0.002551447 0.005212283 -0.0005552182 -0.0060167443 0.00060697546 -0.0024372889 0.004373964 -0.0060473755 0.0028070975 -0.004781108 0.001403328 0.0044583315 0.0034886883 -0.003399013 -0.0028741355 -0.0021474585 -0.0051574796 -0.0063522183 -0.0014202978 -0.0009764381 -0.004274873 0.0026252258 0.0019433195 0.0019636059 0.00028254275 0.0009632906 -0.0032365718 -0.0010451782 0.0025231147 -0.0022284125 0.0019001502 0.002291089 0.0004825368 0.006763456 0.0051505864 0.0013622522 0.0030113363 0.0037886365 -0.0020709229 -0.003948868 -0.0016716229 -0.003637664 0.0033091514 -0.0016974466 -0.0054052626 -0.0014497088 0.003563304 -0.0017154772 -0.0031604823 0.00046970576 -0.0024323557 -0.0012139909 0.0002038768 -0.0007800137 0.004188404 0.002663211 -0.006790831 0.0031156633 -0.0040274737 0.0008714015 0.0033955784 -0.0017270255 -0.0015851433 0.0033873436 -0.0013627191 -0.0050860154 0.0049699075 -0.0013497615 -0.0025553154 0.0053390805 0.0017985253 0.0016499888 0.0039930325 -0.0040444937 0.0033860067 0.00038591388 0.0013201558 -0.00010164259 0.0015970255 0.003373395 0.0023383505 -0.0019355232 -0.0024921058 -0.00030331733 0.00041014588 -0.0024140677 0.0028785963 0.0022076473 0.0042136814 0.0019917553 0.0029123903 -0.00083175825 0.005118456 0.00059141836 -0.0024815458 -0.0007271025 -0.00032600455 0.0024212694 0.00024432706 -0.0009797994 0.004515549 0.0044697765 -0.00060159055 -0.0029327187 -0.0015392421 -0.002140406 -0.0053607104 0.0005460778 -0.0020807649 0.00042316745 0.0033271231 -0.0013965993 -0.0050244876 0.0013988104 -0.0028280106 0.00012174027 -0.0011683071 0.004154093 0.00074535876 0.0012173101 -0.0008402936 -0.00029792587 0.0043372414 0.0019156369 -0.002498448 -0.0037737282 0.0014370697 0.004817238 0.003549398 -0.0034731627 0.004183614 0.0011537615 0.0026091784 0.0058039916 -0.0031822994 -0.0037347768 0.0017656188 0.004579338 0.001850889
y 0.0037761566 -0.00094058097 0.003764121 -0.004470095 -0.0027854948 -0.004089176 -0.0017165627 0.0044709486 -0.0021147598 -0.0036777458 0.0041105575 -0.002955722 0.0043252953 -0.0016436763 0.0019142504 0.0018435123 0.00086383405 -0.00070924097 0.0017269541 -0.006369657 -0.0005677608 -0.0019171172 0.003611066 -0.00154974 -0.0030077046 0.0015236784 -3.773481e-05 -0.0022044128 0.0024505188 0.0017586021 -0.0012781413 0.00027644486 0.005248982 0.003039649 0.0035523158 0.002848567 0.0018565195 -0.0011340333 -0.003785829 -0.0012466958 -0.0016684235 -0.00033896795 -0.0034923367 0.0043379925 -0.0018596426 -0.0041127903 -0.00158511 -0.0006119883 -0.0032383297 0.0007872991 -0.0024471134 -0.001093364 -0.0047408934 0.00037751938 0.0018304756 -0.00046213434 -0.0029313655 -0.0017418219 0.0028098614 0.0016325279 -0.0049923863 -0.0019356925 0.0017115967 0.0013434315 -0.006038561 0.003304272 -0.0046206955 -0.0022912426 0.00044988145 -0.0003421193 0.0016210187 0.005380778 -0.00036193625 0.004461355 0.0013117407 0.005208067 0.0040662317 -0.0057896646 -0.0032800185 0.002900491 0.0022829617 0.0036993318 0.0027610422 0.005471536 -0.0058918293 0.0017691778 -0.0020517795 0.0021938074 0.0030312445 0.002567695 0.0040638163 0.0019056951 0.00014129467 0.0040618633 -0.001167918 0.0010086884 0.004860955 -0.0032952768 0.0027522494 -0.0033714054 0.0035540613 0.0056688027 0.0009929149 0.0017487168 3.12687e-05 -0.005258776 -5.8519552e-05 0.0042236936 -0.0027770393 -0.0032754506 0.002029385 0.00019560613 -0.0014761625 -0.0018526174 0.0037453305 -0.0029212993 -0.000981694 -0.0051131337 -0.0021519272 -0.004945331 -0.0016915152 -0.0031351105 0.0015455635 -0.0049659256 -0.0056938897 -0.0034158241 -0.004686775 0.0036811572 0.0015656499 3.1194348e-05 -0.0004488642 -0.0041388734 -0.00026223535 -0.00030538708 0.0002670022 0.0012122461 -0.00027937756 -0.00087802514 -0.0049974932 -0.0035655047 -0.003047974 -0.0014829923 0.00054997305 0.003466141 -0.001078006 -0.0020152102 0.0039310106 -0.0001299864 -0.0010477441 0.0045864685 0.0020668665 -0.0038896007 0.0032217223 0.0032633117 -0.004723475 0.0013617141 0.0016573084 0.0038974597 -0.00090748817 -0.00066988176 0.0012987191 0.0009361565 0.0004284491 -0.0011964679 -0.0033124269 0.0045353156 0.0040430315 0.0036940088 -0.004397518 0.001452091 -0.0026723964 0.005390937 0.002121297 0.0020170705 0.0017508302 0.0038826999 -0.0039729644 0.0046464144 -0.000554985 -0.0018999228 -0.0016130928 0.005447824 -0.0029175738 -0.0005530414 0.0047317888 0.00040155352 -0.0029065334 -0.0023985188 0.006095246 0.003869151 0.0033749954 -0.0016680923 -0.005494304 0.00078161876 0.004500347 -0.0023388155 -0.0030989943 -0.0025632184 -0.0026787184 -0.0011193402
en -0.00084358855 -0.002746696 0.004483234 -0.0044859466 0.0032184052 0.0021911704 -0.0005654886 0.0061819907 0.0048087477 -0.0023388965 -0.0031553828 -0.0042159045 -0.0039061133 -0.000947303 -0.002909128 -0.0046836296 0.0001973907 0.0021100922 0.0034191362 -0.0030679451 -0.0015883982 0.0001797676 0.00012978597 0.0042861695 0.0003290655 0.0031132018 -0.0039322595 0.0038743601 -0.0018021582 0.004100633 -0.003360245 0.0009222128 0.0011104433 -0.00060798024 -0.0022710203 -0.0041901316 -0.0031368383 -0.0041945805 0.00047328006 -0.0006955959 -0.0016788094 0.0035771863 -0.0014985456 -0.00012968233 -0.0033495252 -0.005342086 0.0043485207 -0.0027171317 -0.0028039296 0.0030141075 0.003444066 -0.0038810587 -0.00038329163 -0.003552957 0.0009531739 -0.0025351932 -0.0018467812 0.000356378 0.003696411 0.0030950082 -0.0053488454 -0.0030298142 0.0043618535 0.0011600613 -0.0031919417 0.0011046322 0.0044664126 0.0005921472 -0.0057725017 0.0019035756 0.0029974747 0.003824979 0.0031398044 -0.0030004065 0.00022893008 7.252548e-05 0.003355125 -0.0050380873 -0.0053686867 -0.00014033134 -0.0048373975 0.002393883 -0.00084986404 0.00621142 -0.0034614026 -0.00065908034 0.0043503665 -0.0017315678 -0.0024982742 0.0010985647 0.0015660806 -0.00026472638 0.0039770347 -0.0027950255 0.0031222592 0.0009956611 0.004522489 0.0026216852 0.004115799 0.004470952 -0.005878574 0.006127057 -0.0036895848 -0.0019885725 -0.0030209846 -0.0040657367 -0.0035590006 -0.003138975 -0.0025587985 -0.0017459793 -0.0028568853 0.002211656 -0.005138844 -0.0029766383 0.005309366 0.0034814475 0.004445167 0.0006040032 0.00019451167 -0.0035568269 0.0034101154 0.0022163813 0.0045969402 0.0027071936 0.0033997225 0.0048355134 -0.0060298783 -0.0031219656 0.00045615563 0.0030682425 0.004533007 0.002540716 0.0034115785 -0.0031197371 0.003474101 -0.0014296682 -0.0051402077 0.003932074 -4.108553e-05 -0.0019297474 -0.00030048727 -0.002814248 0.0020974479 0.0020521942 -0.001401547 -0.004365193 -0.0024928558 -0.00030615606 0.0032074114 -0.001131157 0.00047550167 -0.0005246292 -0.003645922 0.0019103519 -0.0016680262 0.00268205 0.003475672 0.00011450545 -0.0014164933 0.004522071 0.0028823914 0.0037935667 0.0020290196 0.004504844 0.0033842693 0.00019336064 0.0046882657 0.0018973573 0.0027502794 -0.00063113734 -0.0017261078 -0.0017668337 -0.003660289 0.0013393235 0.00486032 0.0049620653 -0.0017987892 0.0036212816 0.0024623873 -0.0018017215 0.0005210025 -0.0022700578 0.0045001074 0.0031602893 0.0025089933 0.0024218005 0.00450596 0.0042455313 0.00083332945 -0.0029841873 0.0049999044 0.003496004 0.00010366136 -0.0015028625 -0.0021618253 -0.0020024069 0.005061832 -0.002468689 -0.0033707109 0.005003706
a 0.0040804325 0.004459917 0.00033547598 -0.00397424 0.005155239 -0.002464567 0.0031251055 0.003941659 0.0046848897 -0.004332525 0.004517814 -0.0054768333 -0.0034668196 -0.0039489353 -0.00283683 0.0031981128 0.004468235 -0.0011272479 0.002043834 -0.0036265375 0.0046216203 0.002446185 -2.0230294e-05 -0.0016885613 -0.0034229946 0.001832919 0.0009022149 -0.0015725282 0.00310547 -0.0021365683 -0.00404034 -0.0011938201 0.0006899149 -0.004054812 -0.002527903 -0.0038844312 0.0051036873 0.0034386525 -0.0006678369 0.0027900045 0.0032774424 -0.0004438209 0.0031392127 0.0024024558 0.0037042263 0.0032897354 -0.0025549158 -0.00087332656 0.0008977878 0.002503587 0.0018167797 0.0021139323 0.0013881642 -0.0046979366 -0.0014428883 -0.004046299 0.0047240965 0.0017911128 -0.0005460341 0.0018953918 -0.004324028 -0.003354712 0.0019720034 0.0034671435 0.00092185184 0.0039136694 -0.0012562888 -0.00049626076 -0.0009358869 -0.0005728243 -0.0028041888 -0.0031359636 0.0044518174 -0.0007246553 -0.0005781145 -0.0038238065 0.005733518 -0.0005127388 -0.00046141623 0.0009747304 -0.004186826 0.0002647287 0.0008905902 -0.0030985966 0.0016698929 0.0008632627 0.0041293898 0.002858656 -0.0014404515 -0.0032481865 0.0037798635 0.0019559327 0.0032989234 0.004198443 0.0023239078 -0.0023011635 0.00012503385 0.0035975587 -0.0024136237 0.0053084316 -0.0046137664 0.0034587863 0.0013232349 0.0030412208 -0.0029905061 -0.0038578296 -0.0024632008 0.002421921 -0.0025385858 0.0031651477 -0.0024424004 -0.0054765358 -0.0027175806 0.002886815 -0.0025840688 -0.002704404 -0.0031234422 0.0015337977 0.0016356923 0.00093302137 -0.0011032975 0.003923808 -0.002386104 -0.0015324428 -0.0035708935 1.6788164e-05 -0.002068496 0.004464967 -0.00021451755 -0.0043875906 -0.0018742355 -0.0036781526 0.00097435096 0.0041238153 -0.0027399126 0.0047378577 0.0036769223 -0.0042311503 -0.005246001 0.004285611 0.005120704 -0.003066882 -0.003667068 0.003891537 0.0018247121 0.0034367486 -0.004461672 -0.0048736287 0.00095016276 -0.004643284 -0.0018476426 -0.0026810446 0.004835898 0.0051581436 -0.002409236 0.004236283 0.005176802 -0.00028743586 0.0047249296 0.0042081065 0.001412063 -0.0014568006 -0.0028068372 -0.0013585531 0.003618808 -0.0023990462 -0.0012848449 0.0042325393 0.0016645809 0.003216263 -0.0047571356 6.8400346e-05 0.003288241 -0.002584963 0.0041566873 0.005076148 -0.0011387883 -0.0004780229 0.0001845077 -0.0026266088 -0.004746567 -0.00019653028 -0.00086739473 0.0027188642 -0.0024404102 0.0030969775 -0.0031364595 -0.0033742976 0.005618255 0.0049838442 -0.0008977712 0.0017014516 -0.0037184015 -0.005255026 -0.0019991365 0.003720787 0.0038640413 0.003776427 0.0033352817 0.0033110376
no 0.0007588541 -0.0049630753 0.0020389457 -6.733169e-05 0.003952219 0.00048224584 -0.0014907246 0.005175581 0.00062015234 0.0002764037 -0.0024568147 -0.0048881383 -0.003891414 0.0048300014 -0.0044080094 0.0042093038 -0.004844769 0.00032539412 -0.0008093768 -0.0058207824 0.0048210877 0.0029932351 0.0014393586 0.0025554725 0.00030818945 0.0043263566 0.0036744648 -0.0051571396 -0.002782252 -0.0007494969 0.001890084 -0.0021942225 0.0011237181 -0.004446932 0.0016600118 0.0026871348 0.0028982898 -0.0017144057 -0.0045859884 -0.0052874354 -0.00089125254 -0.003621773 -0.0036309022 0.0035051152 0.0044081765 0.00076887646 -0.0041117496 -0.0027295435 0.004333836 0.0022804106 -0.0024874818 -0.0040425565 -0.00024909238 0.001349885 0.0011510137 0.0012812227 -0.0029621238 -0.0054898206 -0.003975883 -5.848409e-05 0.0019979703 0.0020418367 0.0012578052 0.0027266473 -0.00088652194 0.002661732 -0.004747226 0.004760788 0.0022867022 0.0034400907 0.0035281628 0.0047644866 0.0011933326 -0.0010343062 0.00052692625 -0.0045948867 0.0050016805 -0.003909213 0.003189196 -0.00229363 -1.21519615e-05 -0.004997889 -0.0052406923 -0.0030973556 -0.0044638086 -0.00016594306 -0.0033119926 -0.0022829236 -0.0025715313 -0.0019399155 0.0036819975 0.0031415927 0.004889535 0.004393199 -0.0017351643 0.004155699 -0.004549307 -0.0016096602 -0.0033661167 0.0025293266 4.521789e-05 0.004509752 0.0016017972 -0.003981284 0.0033908498 -0.0042353515 0.0049097165 0.0020823444 -0.0021762145 -0.003163285 -0.00239792 -0.0037597793 0.0045229644 -0.0015581985 0.004330835 -0.0048705884 0.0014967986 -0.0017663148 0.003747279 -0.0048852596 0.0040230434 -0.00185147 -0.0025007774 -0.003161066 -0.0021294681 -0.0012697709 -0.002446356 -0.0035890215 0.00017516347 -0.00037649035 -0.00015275062 0.0017058409 -0.0041745137 -0.0020185912 0.0027508556 0.0047871284 -0.0052857804 0.003144671 0.002053012 -0.0023005884 0.005015639 -0.0050590006 0.0034227576 0.0026014291 0.00055645674 -0.0031652488 -0.0025809917 -0.0017597502 0.0009245808 0.0010317116 0.004173015 0.004277801 0.0043344214 -0.0013372826 0.0040205535 0.0006822902 0.0031818943 0.0018639704 -0.00036661935 0.0022586533 -0.002409553 -0.0025320256 -0.0039081015 0.0010939329 0.002958801 0.0009600521 0.0008089108 0.0012522062 0.0040371935 -0.003795616 0.0006146575 -0.0034157701 0.0022142 0.0046366486 0.004121736 0.0036160813 0.0033656845 0.0037611413 0.0038643787 0.004590558 -0.002905933 0.0049996106 0.0029080042 -0.0007369323 0.0049229525 0.002865068 0.0049524987 0.0018893176 0.0058986647 0.0010672632 0.005217827 0.0017717058 0.0026531946 -0.002485865 0.003962077 0.003912795 -0.0006154671 -0.0015688635 0.0017214007 -0.003530524
un 0.004993744 -0.004928641 -0.0035430104 0.0015644833 0.0039768787 -0.003141737 0.0015792254 0.0060734674 -0.003604499 -0.0028078505 -0.0025610628 -0.0024938718 0.00086652546 0.005282112 0.0031357745 -0.00017576435 0.0011086111 0.004712254 0.004743958 0.0013912686 0.0035729012 -0.004179328 -0.001993175 -0.0027457993 0.0032364926 -0.0015998255 -0.0042509856 0.0035476112 0.003575211 -0.001781495 0.0049846983 -0.0003466753 -0.001344935 -0.0007892123 0.00036103447 -0.0013975408 0.0018085445 0.0026845278 0.0030255092 -0.005275175 -0.0015972599 -0.002771865 0.003588268 0.0037168455 -0.001285215 0.0008913523 -0.003126922 0.00018711909 0.00506975 -0.0009887704 -0.0025091374 -0.0040711877 -0.002138839 -0.00083900726 0.0018710161 0.00448533 -0.0018016308 0.00039313952 0.00440991 0.00062870793 9.8083954e-05 0.0046554124 0.0049757953 0.003946834 -0.004069169 0.0056452504 0.002772526 0.0055273306 -0.0018769484 0.002571044 0.003380403 -0.0013912305 0.0042513316 0.0011606268 0.005003913 -0.0015065394 -0.00063326675 0.002300286 -0.0057134945 -0.003855261 -0.0036094682 -0.0007625793 -0.0016849746 0.004398033 0.0039949534 -0.0007913508 0.0010420996 0.0012286435 -0.00096712 -0.003792464 0.003977457 -0.0013263598 0.0029127782 0.005416615 0.0026590033 0.0021370715 0.0021992137 -0.0017347569 0.0025435367 0.00066725246 0.001946644 0.0038240433 0.0010499991 0.0023078613 -0.004956519 0.0019652524 0.0050906306 -0.001495418 0.00052758947 -0.0035579817 0.00034483802 0.0005738256 0.0038595295 7.408201e-05 0.0017523329 0.00061909726 0.004629643 -0.0040655676 -0.0031557367 -0.0021939129 -0.000889828 0.003262092 -0.0034517886 -0.0018655222 -0.004589537 0.0028656423 -0.002168512 -0.0043394025 0.0018983651 0.0044035623 -0.00081775314 -0.003198885 0.0011316614 -0.0007004621 -0.0047940887 0.004764303 -0.004094494 -0.0029623827 -0.0019195017 -0.0031830338 0.0016345631 0.004322127 0.00203091 0.0040266397 -0.00027503137 -0.00016916716 -0.0019170201 -0.004441098 0.0018749911 0.0012914496 -0.0042688143 -0.0032806762 -0.0048973416 -0.0021023198 0.0011962577 0.005453262 0.002875526 0.0017933256 0.0040145786 -3.6597277e-05 -0.0004397124 -0.0040317304 -0.00024139075 -0.0011406346 -0.00011291429 0.0042415466 -0.0032446396 -0.0023060304 -0.0033860884 -0.0016249797 -0.002309615 0.0013750268 0.0021558597 -0.0026435857 -0.0018870764 0.0009501521 0.0019362131 0.003150165 -0.001044026 -0.0019504561 -0.0033131044 0.00015846569 0.001320017 0.0011399902 0.004389759 -0.0009984715 0.0001260934 -0.0022550724 0.0005353976 -0.0033888803 0.00016576209 0.0006596464 -0.004978462 0.0036956584 -0.0040245694 -0.004520291 -0.0037640412 0.0029108848 0.002534743 0.004610004
le 0.0013748526 0.0003563011 -0.0015502651 0.004898098 0.002334161 0.0014891592 -0.00044136666 0.0022086257 0.0032009445 1.9326948e-05 0.0015416794 -0.0012206546 0.0026031414 0.0024990956 0.0013056129 -0.0031035405 -0.0026390555 0.0026840498 -0.0026637143 -0.001869455 0.00037237766 0.0012400564 -0.0043082912 0.0045821364 -0.0005292438 -0.0032241442 0.0022754415 -0.0012892338 -0.004767138 -0.0023766095 0.000328425 -0.0045086183 0.00076707767 0.0005591128 -0.0012303558 0.0017690276 0.0017516891 0.0047571524 0.00018115641 0.000102265825 0.0007643362 -0.0010590138 -0.0045646057 0.0044930824 0.00017801997 -0.005184594 -0.0034574096 -0.0018827772 0.0024241533 0.0029338086 0.0031193874 -0.0038423238 -0.00056167884 -0.0018651828 -0.0024246157 0.002994519 0.0018973731 -0.0023058734 -0.004718714 -0.0027698872 -0.00077645446 0.0036752194 0.0034202242 -0.004019536 -0.0058872616 0.004415846 -0.0013691206 -0.0006348546 0.0018029843 -0.0017193586 0.0025289766 0.0005688485 -0.0022013828 -0.0003483919 0.0035978274 0.004719865 0.0021512366 0.0015180424 -0.0038440733 -0.0006776597 -0.0030889995 7.6346536e-05 -0.0015282696 -0.00062648224 -0.0043315883 0.00439672 0.0019314891 -0.0008274283 -0.0019680792 0.004164036 -0.0029375872 0.0025986407 0.0011983736 0.0052726073 0.0048481002 -0.0006937562 0.001448187 -0.0013308723 -0.0040308256 -0.00073533895 -0.00036738158 0.0046879924 0.00518563 0.0037953297 -0.0045758267 0.0015385542 -0.0022240838 0.0003013323 -1.4008041e-05 0.0021994507 0.0019872382 0.0014003554 0.004455155 -5.125448e-05 -0.0023786556 -0.0032704277 0.0037616985 -0.004192591 -0.001434346 0.0015425578 -0.0007258141 -0.0020506058 -0.00048476606 8.660549e-05 0.00051761046 0.0036985935 -0.0037231406 0.0016891205 0.0033075167 0.0010541971 0.0034889493 -0.002775168 0.002635082 -0.004324394 0.0019288758 -0.0039604492 -0.0018675646 -0.0052265474 -0.0015664494 -0.0033413095 -0.0010238228 -5.3295233e-05 0.0011158256 -0.0008606697 -0.0041551134 -0.0036579482 -0.00023954443 -0.0020889184 -0.0045319893 -8.342122e-05 0.00389509 0.002081439 -0.005104818 0.0023752502 -0.0040348493 -0.0031722374 0.0012047858 0.00068488327 -0.0035725448 -0.0026383265 -0.00080741994 0.003997785 -0.003956824 0.00405697 -0.0005801734 0.0012742776 0.0048732995 0.0018568769 -0.0019373735 0.0020276406 0.00093640963 0.003657549 0.0006589689 -0.0025112582 0.0012061417 -0.002263793 -0.00020341613 0.0030474062 0.0030788097 0.0049719885 -0.0042898376 -0.0021768268 0.0036533615 0.0011316536 -0.0023178163 0.00080411986 0.001546515 -0.0006158038 -0.0010280656 0.0030492689 0.0057152696 -0.003688012 -0.0009057362 -0.0021771109 -0.002506134 -0.00034342406 -0.0019924517 0.0035914755 -0.0030367807 0.0017472366
una 5.4952652e-05 0.002054665 0.00088767835 0.0052100983 0.0013201413 -0.003337848 -0.00039018714 0.0025794278 -0.0018440054 -0.003647994 -0.0029110538 -0.004193341 0.003149106 0.002640972 0.0040363297 0.0028730952 -0.003346764 0.001939408 0.0044428124 -0.00096309197 0.0021947462 0.0023563574 -0.004417353 0.00472328 0.0037162413 0.0037315313 -0.003934222 0.0028851612 0.002588029 -0.0008316092 -0.0027052439 0.0026390227 -0.0028335059 -0.003331802 0.002025107 0.0044786474 0.0049157785 -0.0023656944 -0.0051465803 0.004017166 0.0023889784 -0.001961481 -0.0044953907 -0.0018667581 -0.00085039035 -0.0019624617 0.00021987074 -2.0730417e-05 -0.0011428138 -0.002678681 0.004893692 -0.0027952462 -0.004485689 0.0033622745 0.0013230601 0.003993414 -0.0023907414 -0.004125658 -8.954609e-05 -0.0007687768 -0.005075185 -0.0010346067 0.0019804419 0.0035389615 0.0025030884 0.0024232096 -0.0024380188 0.00014062159 -0.0029655618 0.0039054444 -0.0033421477 0.001742561 0.00040455683 -0.0030868708 -0.0033248935 0.0031112083 -0.0031471308 -0.001332164 0.00023554596 0.0036455032 -0.0041238824 0.0011589533 0.004401973 -0.002442689 -0.0025532758 0.0021283526 0.0030460514 0.0011816531 0.0040364256 0.0006611366 0.0011893397 0.00019298051 -0.0034799087 0.0025968612 0.0022778066 -0.0036300342 -0.00028077082 -0.00041627465 0.0006284437 0.005004954 -0.0022099952 -0.001753404 0.0039622122 -0.004244943 -0.0049725464 -0.0024633638 -0.0036404482 0.00091314455 0.00075273163 -0.0022885997 -0.0035977045 -0.001044225 -0.0009236575 0.001479471 0.004577314 0.0028974882 0.004739123 -0.005903864 0.004741585 -0.0017384113 0.004817383 0.0021333487 0.0023564508 -0.005214219 -0.005339902 0.005083243 -0.0024702598 0.001702918 0.002953718 -0.00026476957 0.00567351 -0.00079509127 -0.005264072 -0.003970917 -0.00038835444 -0.0037793154 0.0031630618 0.0011509741 -0.005139227 0.003819399 0.005401911 0.0023652245 0.0031664383 -0.0049362136 0.00011457826 -0.0053014606 -0.0024528417 4.6369532e-05 -2.5926238e-05 0.0009985331 0.002248885 1.9466208e-05 0.0026479005 0.0046180408 -0.0039695036 0.005249407 0.004040707 0.0057330355 0.0023171697 -0.0011390232 -0.0016376856 0.00012887499 -0.0010008963 0.0050255535 0.00021512483 0.0026129473 0.001903564 -0.004843155 0.0032539517 0.0041499315 -0.0015039195 0.0016130176 -0.0027659056 -0.003284004 0.0044955295 -0.0011309735 0.0024841574 0.0013790596 -0.00045251916 0.0017755663 -0.0025535747 -0.0003682632 0.0011206056 0.0028495723 0.00020048291 0.00070174923 -0.0038198284 0.005372802 -0.00309811 0.0040694475 0.0027691387 -0.0035034954 -0.0033535392 -0.004801452 -0.0018624358 0.0039224625 0.005416175 0.00026018333 0.0002536244 0.004800376
las -0.0024216315 -0.0007257681 0.0013498176 -0.003059549 -0.0040093777 -0.005153237 0.004593235 0.0043080794 -0.0025537387 -0.0037630463 0.0006043898 0.00068608945 -0.00063090643 0.0011677254 -0.0022380985 0.0020259828 0.0005777591 0.0049971645 -0.004762041 -0.0043291254 -0.003945585 -0.0006270587 -0.00396694 0.0026569953 -0.0029824164 -0.0035121834 0.0027526245 -0.0044124336 -3.745318e-05 -0.0037271117 0.0055015064 0.004325954 0.0014791238 0.0022817536 0.0026594554 -0.0026442292 0.005400957 -0.005040969 0.0035517234 0.00052310724 -0.0021096899 -0.0018057333 0.0044019083 -0.0021976745 0.0051496406 -0.0033958717 0.0040572723 -0.00021743384 0.0044047995 -0.0012442141 0.0031248399 0.0039662938 0.0005094763 0.0002073822 0.0026111903 0.0035909966 0.0041617164 0.0035717196 0.0029906312 0.0037806274 0.0038905726 -0.0002550108 -8.296576e-05 0.0010159578 -0.001067863 0.0011644199 -0.0045557134 -0.003738665 -0.0021871533 0.0055290344 -0.0019212671 -0.002918872 0.003549273 0.00042146692 0.0013165688 0.0018709544 0.0027554021 0.0018612904 -0.0007056015 0.00020040023 0.00413618 0.0008937391 -0.0029432192 0.0043719006 0.0018995061 0.0010239958 -0.0012096026 0.0019260421 0.003249694 0.0037849667 0.00076055364 -0.0033304086 0.0008768549 0.0011576932 0.003291883 -0.004070091 0.005042376 -0.0039515314 0.0035486568 -0.0042878245 0.003912132 0.004937728 0.0007595729 -0.0024346518 -0.00068586814 -0.0013369704 -0.0026863008 0.0036024863 0.0009663239 0.00089449063 -0.0038663652 0.0034510607 4.2813792e-07 -0.00032967096 -0.003931664 0.0019614014 0.0037883753 0.0022483498 -0.0032751695 -0.0044119405 -0.0024097364 0.00061792147 -0.0034933249 -0.0045874226 -0.0014553767 0.0010360813 -0.0057137287 -0.0016462666 4.7306687e-05 0.0032510695 0.001585874 -0.0006035078 -0.004130519 -0.003895201 -0.00021034334 0.004393187 0.002148577 -0.0013902932 -0.0001601093 -0.005339504 0.00014607837 -0.002912638 0.0026333206 -0.001271618 -0.0024254427 -0.005345313 -0.0012575208 -0.0036608672 -0.0007073791 -0.0017335537 -0.00069177174 -0.0024185341 -0.0041741896 0.00018496372 -5.6274494e-06 -0.0008245396 -0.0028823712 -0.0010347344 -0.0045552026 0.00015802802 0.0033076578 -0.0010755027 0.0013712634 0.0026905322 0.0039353254 0.0034895204 0.0049716984 -0.005295633 -0.004029922 -0.0032838967 -0.0044407174 -0.0035916301 -0.0034216747 -0.001675485 0.0011379287 -0.000998102 -0.0052524726 0.003059637 0.0009374716 0.0025986668 0.003097517 0.004342736 -3.2105097e-05 0.0022510656 -0.001750999 0.0013350633 0.0025142455 0.0055720014 -0.00027748864 0.0019780279 -0.0020703601 -0.0010986292 0.003334972 -0.002766332 0.00010776243 -0.004407028 -0.004230608 0.0036416196 -0.003023129 0.0024615081
lo -0.0033690685 -0.0013500183 -0.004210592 0.0038867046 0.0038317742 0.0021574697 0.004358359 0.000986926 -0.004773057 0.0048623807 -0.0025465777 0.0032725611 0.002728666 -2.640168e-05 -0.0038730984 -0.0011105 0.0029066906 -0.0030304883 0.00093062525 -0.005422845 0.004876498 -0.0018466455 0.0046928725 -0.002687831 -0.004693202 -0.0047626677 -0.0018599057 0.0021363476 -0.0007911541 0.004481783 0.0019729577 0.0018270425 0.0019037368 0.0034976653 -0.0009162689 0.0040213554 -0.0043865223 0.0013553811 -0.0007498515 -0.0004886128 0.0028587258 -0.0014376282 -0.0014014449 0.0004492222 0.00063646224 -0.0021184983 0.002991029 -0.0032516476 0.0042739683 0.00031518767 0.0014779001 0.0012916386 -0.00082496286 0.0005343309 -0.0013974686 0.0020362095 -2.6800768e-05 -0.002222498 -0.004804893 -0.0051642936 -8.994479e-05 -0.0031272648 -0.00021652567 -0.0019879194 -0.005189387 0.0012237557 0.002814102 -0.00019879252 -0.004402226 0.0024407734 -0.00028666813 -0.0022203072 0.0003426424 -0.0004828243 -0.0012578514 -0.004843376 0.0046176636 0.0010717494 -0.0022610624 0.0033981882 -0.00015252766 0.003236386 -0.0012125171 0.004673482 -0.00069961586 -0.0032873163 -0.002031841 0.00514189 0.00033098046 0.0007794133 0.004491713 -0.002411785 -0.00036644406 -0.0033312303 -0.0023073005 -0.003711223 0.0021264784 0.0010168946 0.0033246516 0.0017098103 0.00025858832 0.003953916 -0.00081090996 0.0010344014 0.0037748788 -0.0010736027 0.0035629692 -0.0027567926 0.0030204838 0.0014902934 0.0022742192 -0.0057503562 -0.0004912286 0.0013546642 -0.0024851968 -0.0034183194 0.0036443574 -0.004556652 -0.002625389 0.0035948278 -0.0031428814 0.0049829795 0.0008633587 0.0017268986 -0.0019818814 -0.0023130055 -0.005311566 -0.00012860587 -0.0027823483 -0.0015881021 0.0046409816 -0.004101801 -0.0034704574 -0.0030172563 -0.0031689096 -0.0039164936 -0.0009805801 0.0042589083 0.003415329 -0.0031246059 -0.0033254689 -0.0016294225 -0.0049070017 -0.0026936717 -0.0030137864 0.0009824934 -0.004345535 0.0005388883 0.0012229666 0.0028864318 -0.0005483531 -0.005656627 0.0025230625 -0.002293181 0.0016136181 0.0020291877 0.0052488106 0.0014366482 -0.0010415233 0.0037207915 -0.0033011935 -0.0038626036 0.0017696719 -0.001183136 -0.002359489 -0.00041046174 -0.0047098254 -0.0001991297 -0.00060764636 -0.001379404 0.0005846842 0.0027389564 0.0036731341 -0.00416709 -0.0021293038 -0.0040101325 -0.0051714024 -0.0014448857 -0.00019548839 -0.0038999943 -0.0031349554 -0.0006672776 0.0035064959 0.0010942356 0.0049185446 -0.0038559209 -0.0021233468 0.00010496302 0.0054417164 0.00093441043 0.001454675 0.0006632676 0.00087723386 -0.005385743 0.0022336617 0.0030089072 0.0030821054 0.0015228846 -0.0041727517 -0.0020290266
del 0.004268873 -0.00034013722 -0.004896846 0.002529569 -0.0021565303 0.0028021294 0.002856467 -0.0011146563 0.001204697 0.0030244994 -0.0019070948 -0.0014726348 0.004598683 0.0050847903 -0.0047335206 0.0033942957 0.0047072456 -0.0008892091 0.0014706358 -0.0028786182 0.004871956 -0.00059435406 0.002761681 0.0047501596 0.0022184874 -0.0040416587 -0.00075505325 0.00027111432 0.00033873718 0.0013737944 0.005250871 0.0021696517 0.0054383916 -0.004897104 -0.0026333437 0.0013930852 0.0022237424 -0.0007144971 -0.0038781746 -0.0023546529 -0.004844808 0.004662812 0.0015928342 -0.0034487436 0.002577947 0.0017588781 -0.002911403 -0.0029076668 0.00087454595 0.0047411188 -0.004668184 -0.00039114745 -0.004166287 -0.0008598173 0.0016314728 -0.002858697 -0.00149624 -0.00030118512 -0.0036939017 0.0034105657 0.0018083635 -0.004480918 -0.0007216386 0.0017020449 -0.005125809 -0.0028245307 -0.0043638116 -0.0017700235 0.0034935796 0.0044962293 0.0013442197 -0.0036791994 0.0037997488 0.0022129084 0.00038393517 -0.0042769164 -4.244112e-05 -0.00077213085 -0.004995312 0.0009409613 -0.00014947366 -0.003932283 -0.004635674 0.0040744347 -0.0048264177 -0.0030911774 0.0031815313 7.461408e-05 -0.0015189798 -0.002353101 -0.00038066992 0.0034276354 -0.0024401618 -0.0016288748 -0.0013278087 -0.0016584542 -0.003898778 -0.005281989 0.0043728347 0.0045157573 -0.00304202 -0.0034892638 -0.00077526685 -0.0024668896 0.0040638447 6.502231e-05 -0.0025489295 -0.0009996912 -0.005157953 3.3537584e-05 -0.0022457335 -0.0020998197 0.0023011034 0.0035267505 0.0027199567 -0.0034446414 0.0038116842 -0.006101222 -0.0034884396 -0.004454953 -0.00076415023 0.0010445702 -0.001360214 0.0004745716 0.0040559354 0.003861001 -0.0014264241 0.0047895373 0.0006153671 -0.0010944926 -0.0025870253 0.0029438308 -0.004954185 -0.0013960754 0.003970817 -0.0007973982 0.0003776588 -0.0042275484 0.0018462174 0.0031790268 -0.003880065 -0.002180779 0.00366606 0.0012899312 -4.5976394e-05 -0.00042859276 -0.005452328 0.004909985 -0.00087618054 -0.002244648 0.0018697184 -0.00034773868 -0.0030157848 0.0036387497 -0.0021062647 -0.001986228 0.0045424304 0.0039258813 0.0042821476 0.0010090256 0.0005088534 -0.003553062 0.0021731888 0.004805703 -0.00059592567 -0.00028661042 -0.0017386039 -0.0006546839 -0.0038863844 0.0029508348 0.00010860956 0.005037572 -0.0027388781 -0.0028000425 -0.0026891248 -0.0032875168 0.0005982642 0.0029008538 0.001129034 0.0020185197 -0.0051374715 -0.00012959205 -0.0035052442 0.0018300841 -0.0005233028 0.0047591515 -0.0015416705 0.004001457 0.0032395758 0.0011203189 0.00072898384 0.004063502 0.00057644036 0.0034250265 0.0022960235 0.0029996813 0.003070356 -0.004548476 -0.0030877849 0.00064708176
con 0.00015741159 0.0010125424 0.00035137063 0.003938733 -0.0014949497 -0.00026052937 0.0036237992 0.002346961 0.0020502233 0.0024153953 -0.00068125105 -0.0048107035 0.0015050846 -0.0039734947 -0.0013259212 -0.005048611 -0.00040397592 -0.003516879 0.0038899889 -0.0037067514 0.0054112435 -0.004892701 -0.0021767118 0.0010427816 -0.0012830499 0.00030584724 -0.0016662456 -0.00068809517 -0.0034647393 -0.004981801 0.00357844 8.921873e-05 0.0036469698 -0.004219097 0.0020728104 -0.0046965703 0.004192075 0.002802816 -0.0034259523 0.003459073 -0.003264314 -0.004276165 0.0005895809 0.0019646455 -0.003206215 -0.0047896844 0.004474884 0.0008801018 0.00079379906 0.0015317799 -0.0016674305 0.0005981605 0.00032381807 0.004592999 -0.002681453 0.0008163841 0.0030942294 -0.0038665351 -0.0048933774 0.0041880514 0.00313063 -0.0021803775 0.0031719068 0.0005098435 -0.0033063123 -3.5044613e-05 -0.0026123186 0.0039032348 0.00024138782 -0.0033660918 -0.00011426728 -0.0008188195 0.0041652946 -0.0006653823 0.0041303686 0.0010646906 -0.0011899834 0.003366597 0.00052957755 -0.0021655203 -0.003121044 -0.0019278568 -0.00299877 0.0025311348 -0.0051841377 -0.0031616804 0.0019457665 0.00031758723 0.003054486 -0.0016216794 0.00020726708 0.0019503629 0.0032599014 0.0014991484 0.005914686 0.002451903 -0.0034840817 -0.0010536488 -0.0037162597 -0.0022757337 -0.0018171297 -0.0038693193 0.004816455 0.0005520748 -0.00094889686 -0.0039169923 -0.0038522582 -0.004393386 0.0042832363 -0.002051069 0.0021126936 -0.0029106105 0.0047328845 0.001620837 0.000940854 -0.0020829006 0.0009756063 -0.0023917349 0.0036384678 0.0018968013 0.00080091436 0.0024398856 0.002320832 -0.003791153 0.0040618093 0.0012757783 -0.0036589412 0.00447935 -0.00082661986 0.003980421 -0.00018375287 0.0032857088 0.0010496055 -0.0025315634 -0.0017866552 0.0050962116 0.0004090801 -0.003524406 -0.00042471415 -0.0013745632 0.0014601396 -0.004259468 0.0034785084 0.0005414734 0.003874882 0.0017647651 -0.002626261 0.0018307096 -0.00021190346 -0.004729567 0.0045687472 0.004187265 0.004782653 -0.001303056 -0.004909949 0.0033385803 -0.0031052895 0.004850841 0.0013590965 0.0031751697 0.003302561 0.00056539767 -0.0011796555 0.000490654 0.004692918 -0.0030733312 -0.0006637735 -0.0015321309 0.0023697794 0.0033404443 -0.002619927 0.0021486992 -0.0018300684 0.0014679108 0.004425117 0.0021229368 -0.0029191005 -0.0010792413 0.0042924783 0.0050426936 0.0025106368 -0.0012638123 -0.0006430179 -0.0028277892 -0.0014477365 0.0019222973 -0.00310553 -0.002847211 0.005042607 0.005138359 0.0047109905 0.000767638 -0.0049625174 -0.004448291 0.0013085085 -0.0045081466 -0.0032931087 0.00039066927 -0.001574034 -0.0046446486
había 0.0033116364 -0.0045546433 -0.003837314 -0.0007408852 0.0016069221 -0.000863709 -0.0024818408 0.0044931844 0.0042714137 -0.0033977986 0.00483874 0.0030712266 -0.003718767 -0.0006064597 0.0021722547 0.0032173116 -0.0019755515 -0.0030079174 0.0025397225 -0.0057314294 -0.0024486913 -0.0009500895 0.0026864754 -0.0028232336 0.0025518306 -0.00055374845 0.0014901151 0.0028830755 0.00015882312 0.0037674173 0.0002795088 -0.004207421 0.0050577596 -0.0028422144 0.0026083624 -0.0016722925 -0.0033269497 -0.0034255884 0.0019943009 -0.0009599771 0.00031333012 -0.0044513014 -0.0027206745 -0.0026775734 0.005003886 -0.004656511 0.0023719945 -0.0003504914 0.00040479144 0.004624512 -0.0016537899 -0.0038399214 -0.00017275604 0.0035524666 0.0046767625 -0.0021600656 0.001323425 0.0019686732 -0.0030325418 0.0033220623 -0.003574707 0.0008340609 0.002563319 0.002282247 -0.0031478598 0.0018762038 0.0034533495 0.005143922 -0.0055009597 0.0036051674 0.0024131786 -0.00028411526 0.0053976364 -0.0021868506 -0.0006226029 -0.0034145464 -0.0011342751 -0.0005777306 -0.0026086576 -0.0028341312 0.0030022769 -0.0030297663 -0.0036379907 0.004612354 0.004378718 0.0017385758 0.00024924194 0.00059503 -0.00041713103 0.0036145037 -0.0030084138 0.00094008626 0.0026088345 -0.0003206081 0.0014716386 0.0024508159 0.0049653365 0.00073189614 0.005261904 -0.0025177198 0.0015816124 -0.00084228197 -0.001976955 8.121133e-05 -0.002529616 -0.003950474 0.0020126197 0.004767877 -0.003492152 -0.00532651 -0.0017999669 0.0031311507 -0.0050681513 0.0046163853 0.00022357269 0.0011537082 -0.0005574914 -0.0039488357 0.0015334453 0.0027694474 -0.0032978682 7.656739e-06 0.0012165225 0.0017758418 0.0032336656 -0.0013556109 0.0029197412 -0.002648889 -0.0012602885 0.004438877 0.0032956777 -0.0044860523 -0.0011402717 -0.0048131905 -0.0007218959 0.0032628002 -0.00405108 0.0023234969 0.002479545 -0.0023149804 -0.0041976213 -0.0016514242 -0.0014956091 0.0017638985 0.0044020885 0.000481225 -0.0014931505 0.0014526064 -0.0032765716 -0.00041957272 -0.0003878223 0.0041870154 -0.00295466 -0.002901866 0.0005150664 0.0021832872 -0.0029131598 -0.0024000208 -0.000702561 -0.0013043672 -0.0042650574 -0.0016897673 -0.0015765656 0.0034262796 0.00029381033 0.0013538095 0.00027277795 -0.0020096018 0.0015225743 0.0004317929 0.0024403855 -8.368336e-05 -0.004033577 0.0002856906 0.0053574997 -0.0023291733 -0.0032014858 -0.0008547795 0.0046518617 -0.00020818503 0.0043919245 -0.00378512 0.0048180274 -0.004526184 0.0053214617 0.0012070232 0.0014954943 -0.0025277901 0.005195997 0.003488963 -0.0022307227 -0.004734084 0.0029213873 -0.003387639 -0.004078628 0.0015558108 -0.0020830866 -0.004315486 0.0047599967 -0.0008115348
se -0.0006911049 -0.0020915135 -0.0024847407 -0.0021265533 -0.0019303377 -0.003166284 -0.0038780596 0.0063043744 0.003049753 -0.0014642185 0.0010955918 -0.004612736 0.0038184708 0.0047575394 0.00040647984 -0.0037608182 -0.0017218518 0.002913867 -0.001247155 6.402951e-05 0.00528383 0.0017071948 -0.0026501408 0.002856906 -0.0012475591 -0.003694806 0.0037199724 -0.004923343 -0.0012870401 -0.0008533962 -0.0037578896 -0.0005851092 0.0033322286 -0.0032168725 -0.0031503278 0.0035027005 -0.0011618381 -0.0041159387 -0.00029675468 -0.00083813304 0.0031819826 0.0002583445 0.0037114013 -0.004467567 0.0030180335 0.0028002185 0.0003854951 -0.0013267668 0.0008804044 -5.7476882e-05 -0.003948949 -0.003844437 -0.00021042887 -0.0014109167 0.0048821936 -0.0008509723 0.0029364834 0.0003615095 0.0034926543 -0.004854828 0.00074251636 -0.00093237375 0.0014388413 3.8637856e-05 -0.0043194066 0.005304696 -0.0016468106 0.0019885527 -0.0041442537 0.0029404953 0.0049352776 7.093474e-06 0.0043021133 -0.00020207872 0.004335167 0.0048512216 0.00076628546 -0.0017148859 -0.0059875487 0.0047133043 -0.0016293046 0.00063710206 -0.0013760495 0.005248023 0.0035156666 0.00035907183 0.0017578015 0.0034919016 0.0011785618 0.0034952438 0.0003508842 -0.00024666335 0.0033570528 -0.00074878754 -5.4879973e-05 0.005091519 -0.004388177 -0.0020944024 -0.0008242742 0.0033693793 0.0030292217 -0.002025389 0.0030572524 -0.00074960734 -0.005010624 -0.0026771557 -0.000302759 -0.0015333877 -0.0006368974 -0.0035720114 0.0027529977 0.0038708914 -0.0009637693 0.0014806379 0.00017896715 -0.0004640353 -0.0030025537 -0.0006768921 0.001965051 0.0029830916 0.003652417 0.002592732 0.0029377514 -0.004159013 -0.001235919 -0.0023825327 0.002394097 0.0040793316 -0.002394951 0.0004903452 0.0032875815 0.0006178888 -7.798691e-05 -0.0038254422 0.0050525344 -0.0030023756 -0.0035305102 -0.0034505376 -0.003836402 -0.002285436 -0.0038771266 -1.2206868e-05 -0.0021097485 -0.0014223062 0.002792428 0.0011511308 0.0003404489 -0.00078369916 0.005096252 0.00040286971 0.003043845 0.0037141568 -0.0049710954 -0.0038558855 0.0040795174 0.0025505049 -6.046715e-05 0.0030949325 -0.0022692524 -0.002729194 -0.0037971379 0.003991518 -0.0014232743 -0.003596123 -0.003279187 0.003713196 -0.0010910548 -0.0035332881 -0.00092208176 -0.0005976891 -0.0022975022 -0.0006657507 0.0025768233 0.0004783026 -0.0012255756 0.0017588836 0.0018115677 -0.004005868 -0.0033160849 0.0034755056 -0.004980624 0.00064524653 -0.0042151916 0.0046040365 -0.0013236008 -0.0029877669 -0.0004830722 -9.423581e-06 0.004960966 0.0050580557 0.00058993115 0.0013387973 0.0016832381 -0.00063283707 -0.002249078 1.0299045e-05 0.0016310473 0.0033970186 -0.0019440904 -0.0049690004
por 0.002709126 0.0048464495 -0.0037333115 -0.00018820274 -0.0016521128 0.0027663126 0.004957616 0.0012119621 0.0024902322 0.003595216 0.0020664711 -0.00473986 0.0014841662 -0.00028639977 -0.0010810664 0.0023714972 -0.0008820414 0.0054427404 -9.672856e-05 -0.001339864 -0.00060688215 -0.0047418065 -0.004931036 0.002590625 -0.003072564 0.0009981482 0.0016238086 -0.0037690767 -0.0022293443 -0.0030445908 -0.0038308324 2.5363572e-05 0.005362671 -0.0038815364 -0.0018615688 0.004474019 0.0051208246 0.004777809 -0.0053670313 0.0018337497 -0.003919761 0.0034606576 0.0028872013 -0.0012849278 0.0043605524 -0.004221186 0.0020911784 0.0023810489 0.0033494635 0.0032925617 -0.0011809188 0.0016662573 -0.0037604058 -0.003583464 0.0014568625 -0.0050367867 -0.0002622924 -3.842172e-05 0.0035047815 -0.0036721698 -0.0015012407 -0.002287369 -0.002251453 -4.7908725e-05 0.0014703728 -0.0018216347 -0.0010061581 0.0052922037 -0.001493873 -0.0008225524 0.0036182015 0.0011754625 0.0008336706 0.004553425 0.004368168 0.0017486451 0.0025966137 -0.0020109124 0.002945475 0.0023972497 -0.0031565856 -0.0034612527 -0.0008226011 -0.0030801522 0.0010725366 -0.004958651 -0.00046450738 0.0019083442 0.0016280087 0.0017779128 -0.004293368 0.0025751977 0.003299794 0.0025943401 0.0050492925 0.0014641027 0.0032468266 0.0040375898 9.373331e-05 5.818975e-05 0.00022805252 -0.0026801827 0.0029769551 -0.003090851 -0.0020773446 -0.0023491648 0.0046170647 0.0017340059 -0.0006655397 -0.0023345873 -0.0012712004 -0.0014289758 -0.0027528978 -0.0022826574 0.0005444019 0.0021378675 0.0013600778 0.0022138034 0.00032180912 -0.0020287253 -0.0033368221 0.0038022997 0.004038458 -0.0034284599 0.0018855467 0.005205379 -0.0040920167 -0.0012570927 -0.0047973674 0.0015069506 -0.00107421 0.0008281555 0.0044361935 -0.0045638243 -0.004552433 0.0013961024 -0.004504486 -0.0050904416 -0.005367996 -0.0006063435 0.00020984183 -0.00013185276 -0.000914942 0.004398107 0.0043378156 -0.0037219469 0.0038017118 -0.0045455447 -0.0005462794 0.0015367449 0.00044402195 -0.002664759 0.00020993559 0.0012042226 -0.005534531 -0.0013828477 -0.0030149526 0.0025667138 -0.00048789842 -0.003337642 0.003138356 0.00047635997 0.0012284497 0.0028369774 -0.002469144 0.004534475 -0.0037985286 -0.0021538085 -0.0037001618 0.0005020958 -0.0043476573 0.0049235034 0.003210539 -0.0037948284 0.0034799557 0.0037033327 -0.0044759302 0.0028507323 -0.0034370061 0.0049431585 0.001864959 0.00031068834 -0.004110734 -9.2323426e-05 0.00064382935 0.0007214468 0.0044511086 -0.0008556541 -0.0032389038 -0.0039440184 0.0002079829 0.0006766413 -0.0006507289 -0.0017696896 0.0049050176 0.00038443273 0.0037171128 0.0013009787 -0.0036504562 -0.0010546315
espinosa -0.003695768 -0.0034802656 -0.0017737171 0.0034741499 0.00035859647 0.004017621 -0.0010423341 -0.0014048009 0.0018327587 0.0013914097 -0.00018029154 -0.0018697927 -0.0029755265 0.0025471314 -0.0038682914 -0.0047768643 -0.004707357 0.0046321806 0.0021979338 0.0022663712 0.005443028 -0.004007611 0.0019927768 0.0015070683 0.0032698705 -0.0021072617 0.0048160097 -0.003142772 0.0029517598 0.0034723177 0.00028134394 0.0024999247 0.0037374666 0.0002974737 0.0039058274 0.0015608631 -0.00041324756 0.0035668248 0.0019965037 -0.002262793 0.00038207302 -0.00011740588 0.0023244629 -0.0022506944 -0.0012313772 -0.00070899795 0.0017789465 -0.0032199332 0.0041710665 -0.001322606 0.003002075 0.0010859368 0.0027558643 -0.0026160716 -0.0015612761 0.0011843916 -0.0014948386 0.0024210715 -0.0033809545 0.00115741 -0.00072213175 -0.00048621782 0.001522616 -0.0009801692 -0.0029721542 -0.0037086399 0.0010804824 0.0035460459 -0.0037346152 0.005388476 0.0018749859 -0.0020535192 0.00018796555 0.0018739158 -0.0032217032 0.0011068261 0.003548419 0.0024583677 0.0017005282 0.0016719959 -0.0016705348 -0.003426515 0.003658041 -0.0027573255 -0.0014165886 -0.001902476 0.0035912546 -0.0028633166 0.0017404556 0.001203582 -0.0018335195 -0.0033844698 -0.0035310006 0.0025403604 -0.0038045356 0.0034092122 -0.0013118162 -0.0049598687 -0.0020462116 0.0043444256 -0.0016856461 0.0042298594 -0.0045198677 -0.0051206276 -0.003033613 -0.0007031534 -0.0031459134 -0.004086342 -0.004709703 -0.0011070975 0.0034623428 -0.0049114446 -0.0029619357 0.00051546446 0.0021792797 -0.0042545814 0.0043447204 -0.005240331 0.0023352571 0.0042912755 0.003081413 0.0037527895 0.0045922515 0.0013448725 -0.004044481 0.003310639 -0.0049844705 -0.0026359933 0.0027508365 -0.0041201385 -0.0023283164 -0.00204351 0.0014095485 0.0021473547 0.0011105997 0.0030498852 -0.0016877758 0.0016954672 -0.0040827007 -0.0012164941 -0.003188923 -0.00036127848 0.0021769425 0.0022922296 -0.0023830668 0.00033635317 0.0034353838 -0.0028875538 -0.0017382032 -9.2885246e-05 -0.0020082954 0.0035928292 0.003769407 0.0052827667 0.0039031266 -0.0032053115 0.0005657936 -0.0031582348 -0.002401991 -0.0040212935 0.0019571744 0.00040897 -0.0035854 0.0041642496 0.00020426756 0.0006814722 -0.0016550504 -0.0019783443 -0.0014165012 0.003906287 0.00063887343 -0.0021585661 0.0027936513 0.00022915703 -0.0010384687 0.0041907695 -0.0026226684 0.0041401344 -0.0016861261 -0.0034551742 -0.0026397195 -0.0016077658 -2.4623338e-05 -0.0005697689 0.0032652158 0.003034806 -0.0007426365 0.0023715475 5.1189225e-05 0.0007880313 -3.3507626e-05 -0.0013167656 -0.002962176 -0.0027590562 0.00064961106 0.0011045154 -0.004242354 0.002300053 -0.0009685624 -0.001470462
para -0.0022742222 -0.002270896 -0.0025768979 -0.004714435 0.0003734473 -0.004402831 -0.0022526646 -0.002275244 0.00487788 -0.00040473024 -0.0039757197 0.0020705054 -0.0040068673 -0.00047038856 0.0013512643 -0.0038655128 -0.004462098 -0.0028495092 0.003972761 0.0031201588 0.002537405 0.0008072412 0.0020787579 -0.0019191916 0.0050554257 0.0030467764 0.0022082406 0.0042812685 -0.0048381486 0.00037816569 0.0048967316 -0.0005188587 -0.0028836809 -0.0016784548 -0.0011197433 -0.0009080885 -0.00046858733 0.0034687521 -0.00051348837 0.0013898732 -0.002438579 0.0040706247 -0.0034403936 -0.004239027 -0.0011694073 -0.0040068617 -0.002579634 0.00034219617 0.0015523108 0.0011479578 0.0026913725 -0.0010606163 0.00041763636 -0.00018216074 0.0040443237 0.0037229718 -0.0010847742 2.9153955e-05 -0.0034022036 -0.002505974 -0.0038297852 -0.00022419468 -0.002121756 -0.0018470609 -0.000127947 0.0019731345 -0.0047725374 0.0017951648 0.0017347927 0.0030406595 -0.0015716658 0.0052613704 0.005612482 -0.00014698348 0.00069731247 -0.0045109466 -0.0015510427 -0.0008610046 0.00096571085 -0.00013811032 -0.0047717714 0.0024582194 -0.0042019947 0.005198571 0.0021224187 -0.0036673192 0.0016830349 0.004111441 -0.0030386387 -0.0030824484 0.004843873 0.0016797398 0.005450691 -0.004148694 0.00038180506 0.0040494283 -0.00059633673 -0.0012675681 -0.0029730303 -0.0023847015 -0.0041201888 0.0055466346 -0.00066931784 -0.004672872 0.003543705 -0.002777989 -0.00031371586 0.0002759149 0.0011685239 -0.003237932 -0.00036135357 -0.0020953198 0.0041637756 0.0032569706 0.0010837738 -0.0031064248 0.0019682092 -0.0006738433 -0.00308583 -0.0032763374 -0.0012079548 0.0019430071 -0.003567249 -0.0029054 0.0035615445 -0.0013870235 0.003091023 0.00045110154 -0.0029376238 -0.0025246667 0.0005467361 0.002042483 -0.0033778038 -0.0032333208 -0.0033064536 0.0039014914 -0.0016413385 0.0014693111 -0.0015042641 -0.0041473806 9.063556e-05 -0.00030101943 0.0015644137 -0.0044191685 -0.0034724802 -0.0038143909 0.0009385705 -0.0019770784 0.00061968825 0.0023172149 0.0026935362 0.0004842683 -0.0014322837 0.001002639 -0.0035183935 -0.002121972 0.0051587676 -0.0014174815 -0.004709286 0.002302438 0.0045558815 0.0002967807 0.0009706719 -0.001622924 -0.0023480884 -0.0038005833 -0.0037782209 -0.0048558232 -0.0031049638 0.0043622386 0.0040859575 -0.0004470392 0.0004367845 0.0037596195 0.0010425124 -0.0022460455 0.00058994105 0.0013935561 -0.0014991853 -0.0022494846 0.0044067274 0.0042503374 -0.0039595664 -0.0023827436 0.0014794666 0.0007231133 -0.004016302 0.0051832115 -0.0016398075 0.0027425163 0.005299774 0.00057886593 0.001471868 -0.002081287 -0.0042897956 0.00062701525 -4.62173e-05 -0.0056794253 0.0033688045 -0.0037536796
su 0.0026379265 -0.0022718685 -0.0047890344 -0.0044100336 0.0038616103 -0.0029946652 0.002762102 0.00045451373 0.004784487 0.003805441 0.004861537 0.003591344 -0.0039183903 -0.0043949066 -0.0028290902 -0.0007290708 0.0023743839 0.002277921 -0.0008383126 0.0012090137 -0.001214058 -0.003755356 0.0023509741 -0.0048174425 0.0006443613 -0.0029228053 0.003932047 -0.0021024279 0.00085882266 -0.0032399364 0.0052275187 -0.002797705 0.0022496753 0.001181867 0.004667223 -0.0024919466 -0.0018281261 -0.003248512 0.002696017 -0.0029563087 0.0018872598 -0.0004324079 0.003424092 -0.002598225 0.0007812803 -0.00031413772 -0.004413521 0.004490152 -0.00074466394 0.0034655987 0.00018838223 0.002179756 0.00046261578 0.0040934915 -0.0041264934 0.003946629 0.004253822 3.0589094e-05 0.0017841712 0.0017533283 0.0016803424 -0.0016790964 0.0016984498 0.00048567945 0.0016323369 0.004769216 -0.0040704315 0.00086959556 -0.005145414 -1.2148644e-05 -0.0046102228 0.002104748 2.2707918e-05 -0.0004993658 0.0034611013 -0.0040201517 0.001368855 -0.0019513837 -0.0028634684 -0.0037779664 -0.0043712915 0.003797424 -0.0041555 0.003239157 -0.0024311973 -0.0009006289 0.0016684319 -0.0040922496 -0.0028462047 -0.0036866195 -0.004541402 -0.0016350525 -0.0011182576 0.0010094077 0.0006769489 -0.0034103869 -0.0018106546 -0.0017198389 -0.0026700664 -0.002772676 -0.0021127055 -0.0029805228 -0.0040327488 -0.0043531223 0.0013687756 -0.004977667 -0.0014494343 0.0039024774 0.0035034467 -0.0039759446 0.0032339685 -0.0045265215 -0.00013646654 0.003088387 -0.0010431581 0.00458157 0.00020513774 0.0012793269 0.0034563087 -0.0045999503 -0.0027578932 -0.002987006 -0.000100507765 -0.003928949 -0.00033725396 -0.0036321988 -0.00052770216 5.6413824e-05 0.0030426164 -0.004546573 -0.0010101437 0.0027561118 0.0043155015 -0.00134913 0.0005598759 -0.0026150346 -4.8828864e-05 -0.0044766143 -0.004382925 0.00032353975 0.0006335039 0.0022863706 -0.0051052105 0.0007494733 0.00072457414 -0.0030841494 -0.0004716985 0.0030541741 -0.0032013648 0.0003495989 0.0023732162 0.000102924874 0.0014061389 0.004718649 0.002669315 0.0027020967 0.004731337 -0.0032331366 0.0037290994 0.002375786 -0.002718576 -0.0017813337 0.0030361458 0.0030456036 -0.005187161 0.0011939135 -1.9074453e-06 8.9454e-05 0.0035726356 -0.0035816028 0.004296439 -0.00442038 0.0035165928 0.0045953803 -0.0016070278 -0.004394701 0.002466558 -0.004094301 -0.003758988 -0.00024259907 -0.0037769494 0.0047391946 0.00424804 0.00074875116 0.0047194846 0.0052145645 0.002742643 0.0025578227 0.0036580665 0.0036352708 0.0029631266 0.0031461448 -0.004298236 0.0038207746 0.004671714 0.0049260133 -0.0040978687 -0.002380662 -0.00030491067 0.002120148
era -0.004018542 2.4461431e-05 0.0027980534 0.00494633 -0.0007934951 0.00054672325 0.0032974142 3.9012786e-05 0.0008936439 -0.0044988436 0.00026256114 0.001790334 0.0022001697 -0.0044719214 -0.0026612352 0.0011943929 0.00063645176 -0.0020263195 0.0030343728 0.00060805934 -0.003472587 0.0045802547 -0.0038796016 -0.0014327916 0.00501263 0.00022520946 -0.0026616238 0.00038835994 -0.0025700065 -0.003449692 -0.0035034681 0.002336657 -0.0041518128 0.0016307639 -0.0025582523 0.0029530923 -0.0018566943 -0.0029132578 0.0028277573 -0.004887096 0.00023979873 -0.001099626 -0.003545629 -0.0034886189 0.004127388 -0.0024355438 0.002157266 -0.0047401185 0.0012656313 -0.0007427388 -0.0028628872 -0.0016515836 -0.0049063344 -0.0020184834 -0.00125774 -0.0013969447 -0.0026434725 -0.005073227 0.002317565 -0.00077996287 0.0028046672 0.0013821231 0.0045103095 -0.001634087 -0.005137323 0.0012273595 -0.0046766833 0.0037367675 0.0035802117 0.00093918265 0.003760828 0.0046968283 0.0027852014 0.0026158122 0.0048142346 0.00062144204 -0.0034603165 -0.0047772843 -0.0017375342 -0.00046770368 0.0041288426 -0.004965438 -0.0016682787 0.0052710366 -0.0011784934 -0.0048064045 0.0012792473 -0.0027344408 -0.0027028176 -0.0030356543 0.00025191874 0.0042163855 0.0025037022 0.004745258 0.0053147026 0.0027347398 -0.002939249 0.0032177777 -0.0043432624 -0.002024605 0.0033424387 0.0048171557 -0.0025638996 -0.00438479 0.0037039472 -0.0029555752 -0.0016219353 0.0040372596 0.0025518523 0.00119879 -0.00079591415 0.0037283327 0.004029237 0.0032976612 0.00488581 -0.0029606419 0.0007898992 -0.0017883292 0.0031583193 0.0046160445 0.0028497942 0.0026118811 0.00367734 0.0026011984 -0.0002818422 -0.0038437678 -0.0017464691 0.004699865 -0.0027021812 0.00044807928 0.0029261876 -0.0036573047 0.0038443885 0.0004069702 0.0013310473 0.00458302 0.00037888496 8.026406e-05 -0.005197931 0.004627402 -0.004320571 0.003867624 0.0023236815 -0.00013809686 -0.0039797476 0.0042423042 -0.0010894138 0.0026460395 -0.0014032533 -0.0022646566 0.0004408606 -0.004678549 -0.0033387088 -0.004236635 0.0020615216 0.0010398913 0.00022973685 0.0030572042 -0.0010263401 -0.003376967 0.0016980389 -0.0027057442 0.00016574097 0.0048188814 -0.00072597835 0.0034938513 0.0023548068 -0.0020365242 -0.0026751168 0.004467637 0.0005652737 4.1488067e-05 0.0008219338 -0.0026145026 0.0020671065 -0.0012661383 0.0015458936 -0.0019334571 -4.2154184e-05 0.0021367525 -0.0039552846 -0.0009175831 -0.004082528 0.0010225961 0.0015643865 0.0014269173 0.00065127405 0.00041088095 0.0019744565 -0.00011364017 0.0035036406 -0.0014561121 -0.003040163 -0.0031676039 -0.004425414 -0.003818783 0.0014127811 0.0014649304 -0.0030012478 -0.0048129275
como -0.00300789 0.0022183622 -0.0047332416 0.0026913027 0.0037936072 0.0027453296 -0.003671414 0.002548282 -0.002811579 0.0048237285 -0.0022448644 -0.0017191714 0.0025901112 -3.4550918e-05 0.0024882604 -0.002471319 0.002349783 -0.004551097 0.0031884352 -0.0018254039 -0.0023602739 -0.0003302359 -0.00060239696 -0.00022646184 -0.0007318118 -0.004999518 -0.00376628 -0.0036899708 -0.0049486863 -0.0023895304 0.0049188375 -0.0009327934 -0.0034203092 -0.0034104441 0.0020371 -0.0010790807 -0.00044770612 -0.0022954864 0.0026671772 -0.004511938 -0.0042214426 0.0037418127 -0.0035666658 0.001463815 0.0009649749 0.0045918045 0.0020262839 0.0011199387 0.0016748024 0.0014614207 0.0011531344 -0.001630293 0.0014253402 0.0027364648 0.0045722728 -0.00068169524 -0.0006337565 0.0027152034 -0.0045996043 -0.00048616575 -0.00364024 0.0022297942 -0.004232713 0.001752759 0.0037585022 -0.00045433687 -0.0045893444 -0.003292832 0.0009698474 -0.0018987758 0.0031992537 -0.0001469168 0.0047294353 -0.00038827414 -0.002816717 -0.002769943 0.0010609695 -0.0030572398 0.0023827006 -0.0019342216 -0.0031594974 0.00011260437 -0.002845919 -0.0033286812 -0.0031546233 -0.0011757611 0.00050797395 0.002051695 0.0034779042 0.003556462 0.0030897085 0.0008323886 -0.0023636594 0.005188415 0.0006265817 0.0028494613 -0.00055650005 0.002611021 0.0030928534 -0.0032853447 -0.0020357831 0.00096304587 0.0011744532 -0.0050821966 0.0020786556 0.0006190588 0.0003041755 -0.0012255701 -0.004048044 0.0030610065 -0.004517474 -0.004318054 0.0019573646 -0.0044802576 -0.0012104319 -0.0011082657 -0.0005661049 -0.00441744 0.0021032805 0.00014899511 0.0021319427 -4.0864255e-05 0.0039697657 -0.00515458 0.0025718356 -0.0022257955 0.000156441 -0.003361501 -0.0014669957 -0.0032491367 -0.0011674083 0.004708831 0.0011154719 0.00043853984 -0.0029399795 0.0032614712 -0.004483328 -0.0015745378 -0.0037456576 -0.0036295683 0.001762586 -0.0021601566 0.0009941119 0.0018621291 -0.0031587158 -0.0012976007 -0.0018354928 -0.0049639563 -0.0048259865 0.00074863416 0.0025550933 -0.0004912822 -0.0024809816 0.0023765836 0.000179633 -0.003820447 0.004247235 0.004443061 -0.0038978388 -8.650162e-06 0.0033461615 -0.0010995778 -0.00032489604 -0.0020050895 0.0028227014 0.004012435 0.0011777347 -0.002630088 -0.0009903245 -0.001955295 -0.005440985 0.004259822 0.0001479886 -0.0005037701 0.0038532144 -0.004187015 0.0026092988 -0.003372918 -0.0023259309 0.0027922073 -0.002058409 -0.0014375198 -0.0029004216 -0.0016719808 -0.0006928496 -0.001820416 0.0049034143 0.005102393 0.00070478197 0.00019044422 -0.0022705279 0.0039055408 -0.0029910216 0.0023938783 0.005061581 0.003057974 -4.232607e-05 0.0022065665 0.0033566297 -0.0019645374
o 0.00045009365 0.003201596 0.0028383927 4.5052842e-05 0.0017895799 -0.0036349606 -0.0045783576 -0.0014728338 -0.002728896 0.00049221277 -0.0020544224 -0.000646395 0.003775093 0.0052437843 0.0039134924 0.00092618185 -0.0014746324 0.0015810959 -0.0012230424 -0.005528877 0.0037948643 -0.00463665 0.0018442138 -0.0019072671 -0.0026004328 -0.0008612002 -0.0031874394 0.004128621 -0.0038702579 -0.0045665884 0.0032290693 0.0021771328 0.0027283009 0.0008102117 -0.0017313005 -0.0023207183 0.0012036749 0.004085063 -0.0031168591 -0.001699218 0.0005100167 0.003364542 -0.0033668599 -0.0019365422 -0.00064449635 0.000469008 0.002587245 0.002873745 -0.0040789535 0.003868222 -0.0011138445 -0.0017071302 -0.0049496233 -0.0031566375 0.004766839 0.0013586152 -0.004111951 0.0010109713 -0.0038993298 -0.0046158093 0.0017266636 0.0008925404 0.0008850671 0.0044809156 0.0025717563 -0.0020603994 0.0012049755 0.0019141852 0.00060309685 0.0047810483 -0.0035731813 -0.00073638104 0.0011437453 0.0030931921 -0.00011811697 0.0040474 -0.0016879963 -0.0050754678 -0.0042829514 -0.0022281983 0.004486744 -0.0028796291 -0.0028369783 0.004761167 -0.0041730865 0.00080813107 0.003073884 -0.0035909235 -6.614194e-05 -0.0010392581 0.002926052 -0.0016812925 -0.0028563999 0.0055132005 -0.0014932886 0.004244819 -0.0042023365 0.0032297098 -0.0013028772 -0.0035858839 -0.0011742947 -0.0003979371 -0.0008000287 -0.0010217476 -0.0035388533 -0.0027212012 -0.0013014438 0.0043320223 0.0027979903 -0.001072461 -0.0026030405 0.0021176275 -0.004610789 0.00062309066 0.0023681903 -0.0009809143 -0.0019371186 -0.004950566 -0.004179933 0.0032803372 0.002094211 0.00034353702 0.0052028773 -0.0045334706 -8.383466e-05 0.00011005938 -0.0046340446 -0.0043857098 0.0035144584 -0.0018913768 -0.003448117 0.0038135797 -0.0033669022 -0.0018577015 0.0009705607 -0.0013286191 -0.004365053 -0.0023694844 -0.0049573244 0.00041750984 -0.001761397 -0.0003954944 0.0012106117 -0.0012837263 0.0043740133 0.003137084 -0.00069526484 -0.00036609752 0.0004675658 0.003515321 0.0048216293 -0.0015510501 -0.0008141168 -0.0009698383 -0.00035287134 -0.0025090352 -0.00033306572 -0.0038587654 0.00032123664 0.001077442 0.0020900574 -0.001174662 0.002854641 -0.0034641316 0.004692888 0.00065921346 0.001302776 0.0019298476 0.00016292428 0.0013282814 0.00039516317 -0.0045364723 -0.0012791428 -0.0014210867 -0.004403733 0.00197632 0.001855629 -0.0006976803 0.0040285653 -0.00044473688 -0.0004565491 0.0032462182 -0.003943712 -0.0031729438 0.0042435126 -0.0030761063 0.004381679 0.0030487934 -0.003255225 0.0045262924 0.0036396226 -0.0033996399 -0.0046723895 -0.004934714 0.0023636997 0.0033768502 -0.00069693656 0.000113301074 -0.0042808326 -0.002545575
eran 0.0024451746 -0.004614593 -0.0047662794 0.0006451269 -0.003723235 -0.003806406 0.0024691932 0.004921515 -0.0037268419 0.0043150284 0.0046404814 0.0019107404 -0.002218016 0.0051541547 -0.0038850447 -0.0021874118 0.00081612647 -0.003497293 -0.004800737 0.0004306458 0.0044403304 -0.002841169 -0.0021670596 0.0020328201 0.00045439615 -0.0045848894 0.0034376795 -0.0017836692 0.0013260857 0.0015470805 0.004837028 0.004326046 0.0039833845 -0.00451277 0.0007993168 -0.00018564034 0.00069339166 0.00436145 0.0021143588 -0.0049696486 0.00451233 -0.00043029443 1.719171e-05 0.0028134384 -0.0024822275 -0.00047911544 0.0006036453 0.003586965 0.002412561 -0.0007752136 -0.0041266796 -0.0021633692 0.0039405366 -0.0050410572 0.005009003 -0.00028418406 -0.00063326076 0.0043744105 0.004482128 0.004013679 0.004298001 -0.005126558 0.0039803963 -0.0046333238 -0.004476206 -0.0039809207 0.000966795 0.004208348 -0.0037427992 -0.000746248 -0.0012796343 -0.0019055462 -4.6360496e-05 0.002359891 0.0020817823 -0.0015659418 -0.0012834668 -0.0017086032 -0.0023453967 0.0017887215 0.004630334 0.003652293 -0.0041422606 -0.0025738836 -0.0050219945 -0.003185096 0.002026392 -0.0028250015 0.00087894505 0.004600451 0.0017960406 0.0011497899 0.004823029 0.0037605308 5.3617252e-05 -0.002657425 -0.00046592217 0.0033524204 0.0041261446 -0.0017443214 0.0043879002 0.0019520515 0.0026724949 -0.0032478916 0.0018614607 -0.0007311029 -0.00454938 0.0029982799 -0.0046409643 -0.0038712395 0.0012120904 0.004100481 -0.0012418805 0.0033251268 0.002865255 0.0020023377 -0.0027931237 0.0016834567 -0.0041774344 -0.002458584 0.002943312 -0.0035698283 0.003225063 -0.0020529581 -0.00031090406 -0.0033948 -0.0037413612 -0.0014855763 0.0041769687 0.0025843084 -0.004408992 -0.0034637575 0.0014905547 -0.004520548 0.0033673302 0.0034400993 -0.0049667074 0.003997769 0.0035125467 -0.0012134204 0.0013705007 -0.0032371273 0.0029586738 0.0036944873 0.002037222 -0.004832917 0.0021038621 -0.0015921439 -0.0010787545 0.0032327105 0.0012133385 0.0018107651 -0.0031696442 0.0030479534 -0.002369186 0.00050162274 0.003680439 0.0024804964 0.0036930998 -0.0016339497 0.0019682369 0.0038752318 -0.0016969342 0.0029728345 -0.0048946086 0.0048160176 0.0020135988 0.0024311088 0.0022994005 0.0022977088 -0.0020790198 -0.0028052444 -0.0007917447 0.00058145117 -0.0012403948 -0.0040018256 -0.0036298225 0.004434531 0.0049907095 0.0031660155 -0.0023193303 0.00061888323 -0.0040456755 0.0035507875 0.00079035514 0.0038955447 -0.0025624477 -0.0010804739 0.0021645918 0.0020664355 -0.0028038186 -0.0037375758 0.0006469542 -0.0050277174 0.0033616698 0.002915177 -0.00159287 -0.0033577837 -0.0042262515 -0.0009575131
pero 0.0035664695 -0.00013973021 -0.0041057267 0.0045739072 -0.0037620729 0.0025153004 0.0033372992 0.0013788395 -0.004418011 0.003302361 -0.0039398884 -0.0029190665 0.004818473 -0.003874166 -0.0038509043 -0.002679569 0.0016265817 0.0012667152 -0.0026692345 -0.0025083607 0.0046139164 0.00465555 0.004903547 0.0006194602 0.0021302113 0.0004179336 0.00090059644 0.0022671702 0.0006592479 8.282896e-05 -0.0013399819 -0.003260905 0.0042783357 -0.0033168264 0.0015548433 -0.0002951798 -0.001610184 -0.002598355 0.0013687 -0.0033937509 -0.004020849 -0.0013543813 0.0022461766 0.003331991 -0.00016203092 0.0034710728 -0.0038429217 -0.0023147564 -0.0037223992 -0.0028311724 0.0037239143 -0.0048936782 -0.0047586514 -0.005181344 0.0046830988 -0.0015593698 0.00044755772 -0.0034127415 -0.0015604467 -8.9684734e-05 -0.0015185862 -0.0037947355 -0.002897337 0.001389867 -0.0053239292 0.0010384084 -0.0011229309 0.004755323 -0.00074345374 0.003641791 -0.0035938246 -0.0034585076 0.0033443097 0.00040833544 -0.002314053 -0.0012846179 0.004918781 -0.005079075 -0.0025445109 0.00035187817 -0.00033508867 0.004488566 -0.001273297 -0.002926371 -0.0042334213 -0.005132865 -0.0036994617 -0.0028308975 -0.0029613497 -0.0005248041 -0.00013716375 -0.0018703354 0.0014214293 0.0024415602 0.005224867 -0.0019461634 0.002673926 0.0034215178 -0.0015261684 -0.0034584482 -0.0021729062 -0.0027717734 0.0033673467 0.0043463935 0.0038429047 -0.005087799 0.002771012 0.002919608 0.0026551136 -0.004705082 -0.00015876848 -0.0038399599 -0.0046333927 0.0010883914 0.0052818935 0.0032398114 -0.003288984 0.00041821296 -0.0020094395 0.004710407 -0.0041955356 0.0053106095 -0.0028762573 -0.0038064695 0.00055854395 -6.998861e-05 -0.0048039323 -0.00021484452 -0.0003151725 -0.0031944753 0.0032814206 0.0014458421 0.0039937785 0.0034095922 -0.0032093215 0.0027164877 0.0025857326 0.0025442678 0.0021981457 -0.0027034886 0.0026081963 0.00032576983 -0.000123096 -0.0032750943 0.0007552282 0.002277426 -0.00496008 0.0042318217 0.0015657957 9.579837e-05 -0.0014264892 -0.00030186193 0.0029727619 0.0028319668 -0.0034747554 0.004620335 0.0001742187 -0.0036819486 0.0043974537 0.0028636914 0.0019773743 0.0041892193 -0.0038524102 -0.0028183172 -0.0011384005 -0.0016994405 -0.00067246327 -0.0005102016 -0.00425546 0.0010242703 0.00086833676 -0.0002024878 0.002713002 0.00061205786 0.003230136 -0.00092749327 0.0038180673 -0.0005082212 0.0017829352 -0.0017439174 0.0027899083 0.0017681031 0.0005099868 0.0046058632 -0.0034551828 0.005103922 0.0005241836 -0.00082504086 -0.0013452853 -0.004253311 -0.0006801575 0.0013453858 0.002857689 0.0041138 -0.0040012603 0.004652691 -0.0041011223 0.0014255594 0.003924404 -0.0012591778
estaba -0.003850299 -0.004227719 0.00045710895 -0.00025217936 -0.004222136 0.0012320419 0.0012088898 0.0031032392 0.002139049 0.00182205 -0.0049605425 0.0024343198 0.0021356728 -0.0035671033 -0.0010711174 -3.5263998e-05 -0.00040127142 -0.000178505 -0.002663253 -0.00092419423 0.002563916 -0.00059971306 0.0004159098 0.0010959781 -0.0018694081 -0.0042334637 0.0047069876 -0.005089439 -0.0017094853 -0.0006539815 -0.003491471 0.00082206883 0.004346147 -0.0010949393 0.004238341 0.00036010967 -0.0026131724 -0.0011111336 -0.00062484795 0.0026873655 0.00322481 0.0030756362 -0.0030988685 -0.0032029476 0.003728661 0.0010042402 0.0025861845 0.00030554776 0.004149545 -0.0042418106 0.0050123725 -0.0043517547 -0.0013544663 0.00291612 -0.004532504 0.0018994365 -0.0035593538 -0.0038300597 0.0008484872 0.0008194755 -0.0016346569 0.003763937 -0.0032698116 0.00029922655 0.0038025659 0.0014750016 -0.0035423043 0.0024197185 -0.0030999554 0.0008906118 0.0013738074 0.00413275 0.004325651 -0.0024981662 0.004931973 -0.0026961581 0.0043678815 -0.00453247 -0.004607806 -0.0006786325 -0.0043482073 -0.0020111178 -0.0005830525 0.0005904879 -0.0053619524 -0.0034424164 -0.003557878 -5.432195e-06 0.0026387821 0.00013329195 0.0050854054 -0.0014216872 0.00443903 0.0035473632 0.004851592 0.00045436498 -0.00011400022 0.0006796423 -0.0046166778 0.004820037 -0.0017647531 0.0044816458 0.0011407343 0.0010710434 -0.00086693704 -0.0058517284 0.0010300217 0.0018613981 -0.0050913882 -0.0025893827 -0.0012906827 -0.0030082478 0.0017995888 0.00090810156 0.0025006703 -0.0033348284 -0.0027303759 0.001537702 0.0033186795 0.002519947 0.0026296838 -0.0031505574 0.0044107526 -0.00371831 -0.004145592 0.004534755 -0.0017481511 -0.004584667 -0.0016686599 0.0029231587 -0.0010215403 0.0023087342 -0.00015998789 0.0016955265 0.0006861322 -0.0042948774 -0.0020900012 0.004125433 0.00035201528 -0.0032309727 0.003994786 0.0034124977 0.0034414984 -4.942191e-05 -0.004602148 -0.002101954 0.0022529191 -0.0032923087 0.004946852 -0.004720038 -0.003794858 -0.0031609023 0.0029701574 -0.0033961993 0.0037655486 -0.0042515784 0.002250882 0.0020237407 -5.418022e-06 0.005119356 0.0027739902 0.0004126087 0.0023126483 0.0032877948 0.0013607683 0.0051280824 -0.00057116675 -0.004430546 -0.0023109836 -0.0006982575 -0.004057521 -0.00050249824 0.0042425296 -0.0026451102 0.0027972567 0.0023912424 -0.0008431386 0.0008596673 0.0031542203 -0.0031180526 0.0016655001 0.0047781146 -0.0015493876 -0.0035820631 -0.004103567 -0.004318303 0.0020341396 0.002896547 0.004264064 -0.00042805346 0.00090809085 0.0015104292 -0.0053637717 -0.0051905722 0.0026994918 -0.003998656 -0.0012752388 -0.0026352429 0.0028575128 -0.0017571733
ya 0.005016167 0.00022778573 -0.0027281619 -0.0017538804 0.0011595422 -0.0029205417 0.003795433 0.005378343 0.0021105306 -0.003455859 -0.0030303078 -0.00041391057 -0.00049405464 -0.0025162937 0.0040001906 0.002858551 -0.0021682798 0.0015124204 0.0026892684 0.00039337596 0.00459948 -0.00083224126 -0.0033171412 -0.00033911894 -0.004069112 0.0046672043 -0.0042463965 -0.00089128164 -0.0018409988 0.0015365782 0.0027569176 -0.0041709407 -0.0018877443 -6.462284e-05 0.002151583 0.0028236005 -0.00046552197 -0.00044158174 -0.004156953 0.0018194005 -0.0041377055 0.0016346489 -0.0018229174 -0.0036337893 0.004021775 -0.00043050185 -0.004851728 -0.0046600346 0.00050681224 -0.003944705 0.0019250668 0.001523398 0.0012625889 -0.0030870128 0.0040608994 -0.004785991 0.0037244763 -0.00067164627 -0.0010170415 0.0019090936 -0.0014704763 -0.002345751 -0.00097016 -0.003045807 -0.0007239868 -0.0023533304 0.002216181 -0.004170947 -0.0026951844 -0.0039914963 -0.0048631974 -8.741497e-05 -0.0035038195 -0.0028947352 0.0015460246 -0.0006130433 0.0020805523 0.0036492413 -0.0055057458 0.0029619897 -0.0042389026 0.0030211953 0.0034293712 0.004897375 -0.0043565375 0.0015606141 -0.003723227 -0.00044929868 -0.0026109805 -0.004136639 0.0025728957 0.0026923905 -0.0016442375 -0.0034327698 0.0025096985 -0.0015841842 -0.0043381494 -0.0024171865 -0.0007345466 0.004724332 -0.0038413121 0.004369063 0.003116113 -0.0028202282 -0.0012311807 -0.002065325 0.001861004 0.00012443835 -0.0015602997 -0.0051111914 0.0031471767 -0.0052533676 -0.004497539 0.0005233574 0.0017864864 -6.941463e-05 0.00041995692 0.00054212153 0.000854114 0.0035887992 -0.0015221849 -0.0031519225 -0.0036387912 0.0037369675 0.00070531043 -0.0026462434 0.002698759 0.004330811 0.0038846286 -0.0034668504 -0.0021111642 -0.0011672414 -0.0035229584 0.0021005846 0.00289418 -0.0026721568 0.0033177724 -0.004165759 0.0027085897 -0.0026614568 0.0014277743 -0.0019520486 0.0015735668 0.003755705 -0.00071436027 -0.0028756247 -0.0045651435 0.0017985972 0.0022214912 0.0034863476 -0.0019085769 -0.0053622113 0.0033647565 -0.0018341145 0.0017195028 0.004624477 -0.0014966324 0.0011844959 -0.001847413 -0.0030337065 -0.0026385942 0.00015614089 -0.0038281379 -0.0009089191 -0.0013681985 0.0037481869 0.0008360075 0.0027102581 0.00191284 -0.0016843018 -0.0029170478 0.00507763 0.0038419303 -0.0046540117 0.0028680528 0.0043539163 0.0041961735 -0.0037782353 -0.00075926486 0.0007190654 0.0012526952 -0.0006074277 -0.0021635308 0.0034772612 0.0039344807 1.8573764e-06 -0.0028408694 -0.0019104651 -0.0019283603 0.002354377 0.0006269725 -0.0012116903 -0.0049380395 -0.001175374 0.0036215496 0.003303314 0.0024436745 -0.0019020182 0.004408328 0.0003296211
al 0.00065169466 0.0030413275 -0.0033874684 0.0033303115 0.005293528 0.001591205 0.0017641464 0.0027182235 -0.0010235952 -0.003871283 0.0007117159 0.0001508607 -0.0033997844 0.001215903 0.0026726092 -0.0037690701 0.0012227 0.0041210083 -0.0042426623 0.0011181432 -0.0040304544 -0.004164125 0.003531879 -0.003722033 -0.0005753986 -0.0041759727 -0.0038484815 -0.0036590453 -0.00010702799 0.00082448625 -0.003752795 -0.0040464518 -0.0013530336 -0.001136765 -0.0029681257 -0.0019695149 0.0019967256 0.0014849788 0.0031069783 0.001822045 -0.00068330247 0.0013844769 0.0044255964 0.0011626031 0.0013332271 0.00042678922 -0.0046985103 0.0027265698 0.0026946722 0.0001635456 0.004683272 -0.00299513 0.0013357067 -0.0040990333 -0.004425219 0.0008625466 0.002316482 0.0027782745 -0.004598748 0.0021042714 0.0010158103 0.0020110656 -0.00017045374 0.0028159781 0.0032716761 -0.003915047 -0.0050738803 0.003930754 -0.00087586895 -0.0042929514 -0.0021333655 0.0008601823 0.004656452 -0.00089048984 -0.00037428562 -0.0036270688 -0.003432032 0.00038671764 -0.000748568 -0.003928764 0.00024447424 -0.0046727797 -0.0014661676 0.0025504895 0.000263532 0.003788488 0.0034564089 -0.00042513144 0.0024857856 0.0031588296 0.0044763456 0.00490017 0.0027483155 0.002661988 0.004088661 -0.00052963395 -0.002759101 0.0042543444 0.00084309815 -0.0023272124 -0.00084372837 -0.00210874 0.004635441 0.0014243731 0.0019227746 0.0026285003 0.004293041 -0.002107623 -0.0032671744 -0.0023151091 -0.0020042267 -0.0050646286 -0.00044546463 -0.0041771852 0.005098778 -0.0017398271 -0.0029545033 -0.0046141683 -0.0018247992 -0.0049673696 0.00054471195 0.0030689205 -0.0011870628 0.0036264919 -0.0011703661 -0.0034294664 -0.0019568899 -0.0014529949 -0.0036216397 -0.004911645 -0.0017385543 -0.00091149856 0.0023652886 -0.0040359353 -0.0024519633 0.00091057894 -0.0010562685 0.0015187738 -0.0012484108 0.001962141 0.004350538 -0.004219962 0.001773448 0.0029400669 -0.00033837874 0.0031054034 -0.0029672412 -0.0023265325 -0.003870706 0.004835888 -0.004484903 -0.002003586 -0.0002136099 -0.002083502 0.004363221 -0.0029484886 -0.0036182783 0.0049172933 -0.0041627376 0.005091361 -0.0019164894 0.0029924698 -0.00027371425 -0.0019035344 -0.0039042125 -0.0028759874 0.0035119045 0.0030189892 5.1784937e-05 0.003216379 0.0016817037 0.0020964737 0.0015431828 -0.0049471124 0.004776078 -0.003924904 -0.0018376603 0.0009099694 0.002828929 -0.0044653164 0.000656177 0.0033896847 -0.004222456 0.0049540214 -0.0022463605 0.0049014683 -0.0032120775 0.0035514503 0.005186453 -0.004392032 0.00047607778 -0.00390897 0.0037605795 0.0044584186 -0.0027382774 0.0005770644 -0.0008607592 -0.0042337617 0.00033752038 -0.004941158
él 0.0013762029 -0.0039193174 0.0027381044 0.0039550476 -0.0005417103 -0.0023694152 -0.004714938 0.0036292002 0.001369979 0.004692208 0.0015916693 -0.0020397876 0.0017428007 0.004701506 0.0045844456 0.0035439793 -0.0044665905 -0.0033717467 0.003825263 -0.004917009 0.002076117 0.0036440755 -0.001632611 0.0034946548 -0.0039222883 0.00287615 0.0029155647 0.0013981 -0.004648274 0.004529429 0.004533528 -0.0007680218 0.0024683524 0.0027174116 -0.0006432006 0.0030604936 -0.0017057674 -0.00080590753 -0.0009381712 -0.0027096795 -0.0008301847 -0.0038738477 0.0016639188 0.0048932945 0.0032184485 0.0029011238 -0.0024443606 0.0024620285 -0.0030628776 -0.0022239487 0.005075208 0.0029246716 -0.0030942636 -0.0033898759 0.0037062757 0.0010063715 0.0032398626 -0.0038444248 -0.00085574173 -0.0005939774 -0.00042371076 0.000920966 -0.0031020425 0.0023839932 -0.0021872967 0.0047035045 -0.0006301483 0.0053954124 -0.0011872848 0.0034566715 -0.003883803 -0.0040751635 0.0006383231 -0.0012501464 0.005216471 0.0023805765 -0.0020981173 0.0029559294 -0.0006492397 -0.005011872 0.002590997 -0.0013938625 -0.0051240395 0.0052128676 0.0030576694 0.004099433 0.00047749118 0.0040709972 0.0026180139 -0.003211789 0.0048309886 -0.0010876809 -0.0044125738 0.0049614776 -0.0016788215 0.004740126 -0.0038381608 0.0043697217 -0.0024401632 0.0023957149 0.004135454 0.0030156279 -0.0009921147 -0.0030250826 -0.005281783 0.00091915205 0.00410747 -0.0018320422 0.002750671 0.0027130048 -0.0047246795 0.0004267736 -0.0036781074 -0.0023474023 0.00086735433 -0.003565638 -0.0017010572 -0.0048275418 -0.003481269 -0.0038193266 0.0052351477 0.0048105684 0.0003995105 -0.0016780191 0.0027926846 0.0010555284 -0.0052496227 -0.0033781915 0.00027417182 0.0038618075 0.002154141 0.0047043036 0.0030005665 -0.0002162136 0.004500227 0.0049370555 0.0036233042 0.0042287405 -0.005282352 0.0012840754 -0.0033139645 -0.0040113293 -0.0044203713 0.0014825615 -1.6711954e-06 -0.003649967 0.0023531285 0.0039476114 0.0021880465 0.0040773456 -0.0017618833 -0.0038500405 0.0019224848 -0.0007985315 -0.0043110056 0.002737098 -0.0009815157 -0.002075368 0.0012201237 0.003822902 0.0034692858 0.0003767934 0.004242347 0.0015921254 0.0031389748 3.5601566e-05 0.0011978587 0.0027999075 -0.004959438 0.0029721344 0.00012010466 0.0033134455 -0.0003286644 -0.0015453502 -0.0024337417 -0.0011565875 -0.0018919983 -0.0021916886 0.00080282724 0.004207757 0.002255152 -0.003516451 -0.003420394 -0.0011039976 0.0026766337 -0.0043942984 0.0032177952 0.0020031112 -0.00047163968 0.0050079133 0.0045858277 0.00040267792 0.0018812073 -0.0052516647 -0.0038374835 -0.0011986004 0.005045137 0.00096113724 0.0027072742 -0.0034148195
cuando 0.002153301 0.000116010626 -0.00054032326 -0.0015072986 0.0029264768 -0.004802636 0.0026593679 0.0034598366 -0.0012411147 -0.0019505654 -0.0037296466 -0.0035502326 -0.0025197556 0.0018212846 -0.0024303347 -0.0007712315 -0.004564652 -0.0015566326 -0.00025238024 -0.0047088726 0.0018815638 0.004692939 0.0022120303 0.0009973363 -0.0023526372 -0.000749914 0.0012201744 0.0007385843 0.0040851748 -0.00048519525 0.0037055712 0.0028086656 0.0017545468 0.0034173531 -0.0023042492 -0.0017978351 0.0036349494 0.004207874 0.001393777 -0.0023862007 0.0035675662 0.0013485275 -0.0002532864 0.004668846 0.0026139556 0.0018302241 -3.91712e-05 -0.0044286144 -0.0013818522 0.0013418245 -0.0027682693 0.0033635062 0.0033910272 -0.0046755522 -0.0026005255 -0.0031591558 -0.00041324768 -0.001212679 -0.0012534603 -0.0011884121 0.0015997122 0.004701705 -0.00214144 -0.004050928 0.0014530647 -0.0028928313 0.0032670656 0.0018292785 -0.0043902295 -0.0034266845 -0.004669953 0.0014581854 0.0018544092 0.001272827 0.00026178514 0.00058799883 0.0019177942 -0.0012007401 -0.004563304 -0.00042452395 0.0016532071 -0.0015397213 -0.0013077602 -0.0006296993 0.0033120068 -0.0017141302 0.004919142 -0.0018081606 -0.004984034 -0.0031480072 -0.0021007147 0.0010002947 0.0028625315 0.0014348783 0.0050934646 0.00075916015 0.0029043967 -0.00010845272 -0.0007864096 0.0033304926 0.00057342625 0.0046723178 -0.004041411 -0.0046435376 -0.00050593656 -0.0015989769 -0.0009882358 3.005045e-05 -0.0026719386 -0.00447388 0.0039849994 -0.0020245397 -0.0015863876 -0.00094038184 -0.0003486029 -0.0046215695 -0.0006721502 -0.0013195247 0.004325487 -0.004220195 -0.0022127028 -0.00060600624 0.0017200614 -0.0032439618 -0.0029822183 -0.0037474718 0.0023563292 -0.004284364 -0.0016929302 0.00013955674 0.0011184964 -0.0051277988 0.0041680355 -0.0012394353 0.00023650925 -0.0041502723 -0.0042923964 0.0016327957 0.0016878152 0.0012622474 0.0033218614 -0.003699029 -0.0007340029 -0.0014468563 -0.00072194013 0.0019286254 0.00044126506 -0.0037676485 0.0017161947 0.0032508783 -0.002832679 0.0012781373 -0.002232476 0.0047243303 0.0016647517 0.0015534051 -0.000104472674 -0.0042374074 0.004308115 -0.0007075616 0.0038266445 0.002071912 -0.0041801864 -0.000219686 0.0012597425 -0.001000773 0.004951782 -0.0026593872 -0.003627076 0.0019202488 -0.002078295 -0.003267945 0.0012360895 0.0025414783 -0.0025258102 -0.002011218 -0.003932752 0.00096397946 -0.0021308812 0.004394255 0.00017067863 0.0011420549 -0.001492833 0.0038822622 3.8160495e-05 -0.003972166 -0.003604494 0.00038990058 0.0044258866 0.0017563219 -0.0023695529 -0.0034208386 -0.005215846 0.0016148164 -0.004457141 0.0016645999 0.0011034143 -0.00076809886 -0.0050378903 0.0029800578
gutres 7.218281e-05 -0.0050460645 -0.003910377 0.0044118757 0.0014662367 -0.0044890447 -0.00035139607 0.0034409475 -0.0047094524 -0.0032654915 -0.0005437741 -0.005265315 0.0001916209 0.0012977297 0.0043102116 0.00031246146 0.00051496655 0.002749483 -0.0020287917 0.0027409657 0.00042017896 -0.000678691 -0.0048688687 0.00025239107 0.0035244646 0.0005938646 -0.0039916625 -0.0017929524 -0.0033818288 0.00294894 -0.0028912318 0.0025640375 -0.0023082613 -0.0037236952 -0.003651797 0.0021424207 -0.0041408055 -0.0029255068 -0.0038174808 -0.0024747404 -0.0023846568 0.0007505147 0.0030628613 -0.00032897567 -0.0021828725 0.00053556723 0.002722879 -0.00255137 -0.0024546264 0.0027606257 0.0032993967 -0.004075034 0.0036748839 -0.0051056263 -0.003680344 -0.003103813 0.0008339741 -0.00032045605 0.0014560445 0.0034486884 0.0022364166 -0.0017665153 -0.0030651686 -0.0040694913 -0.00066221005 0.005257345 -0.0040209093 0.0023712036 0.0017235675 -0.0016632546 -0.0035951633 -0.0023546747 -0.002007882 -0.0035867111 0.0030540146 -0.003847989 -0.000989373 0.0017493472 -0.00044520947 -0.00394784 -0.002540896 0.001524606 0.0009488099 -0.00053648755 -0.00074088876 0.0010640249 0.0008888716 -0.0011493667 0.002764887 -0.0037967449 0.003319603 -0.0045103105 -0.0007946233 0.0038518365 -0.0011400493 0.0036404245 0.0027069128 -0.0039316886 0.00014394042 -0.001978595 -0.0045175976 0.00019316799 0.0033246453 0.0039640493 -0.0028116605 -0.0020953843 -0.00272626 0.0010479464 0.0012483868 -0.005446332 0.0010696437 -0.004885029 0.00010761727 0.002235912 -0.0023888394 0.00010891601 -0.00089530885 -0.005055479 -0.0012124539 0.001989617 -0.004064519 -0.0025497922 -6.41344e-05 0.0037735556 0.0003639561 0.0051642195 -0.0043955096 0.00463268 -0.002482656 -0.003273308 -0.0035613007 0.0007854668 -0.0015875964 0.0035841484 -0.00019180965 0.0015254394 0.0026707423 -0.004638146 -0.0014432066 -0.0025802169 -0.0038650217 0.0014594218 0.0010735679 -0.0013057562 -0.0009791491 -0.0036691613 -0.0019437154 0.0006177501 0.0039052523 0.0037128888 -0.0014824329 0.001326956 -0.00126872 -0.001962966 -0.0023227495 -0.0025136967 0.002239168 -0.0034907793 -0.0037722527 -0.002006934 0.0038325826 0.0011321036 0.002697091 0.004217954 -0.0032936356 -0.0019980571 0.0038975396 0.0022350918 0.0022959425 0.0045010047 0.0040318575 -0.001126906 0.0008021234 0.0026027816 0.00463202 0.0051658126 -0.0045438646 -0.0022886398 0.0027614264 0.0006324899 -0.00018030411 0.0040874323 0.0034368802 -0.003410364 -0.0008225107 -0.0040665977 0.0035954996 0.0016717699 -0.0005051018 0.001280123 0.0042747986 0.0041031498 0.0027022513 0.0011136385 0.0012032101 0.0043420587 0.0009313156 -0.00021236954 -0.0048184264 0.0012609982
les -0.004116072 0.0031446135 -0.0029817105 -0.0007553449 0.0010542793 -0.001266683 -0.0045202984 0.0028659396 -0.0033615988 -0.004186142 0.0019006968 -0.00082889287 0.0032394212 -0.0032124165 0.0003596403 -0.0005554314 0.0028000092 -0.0045344224 0.0030998262 -0.005426179 -0.0035673755 0.00010559129 -0.0013542316 -0.0018321278 -0.0025422985 0.0017923256 -0.0045626606 0.00040516618 0.0017471579 -0.00020323557 7.5477896e-05 0.0035488983 -0.004477347 -0.0048362943 0.0023673857 0.004590103 -0.003658794 -0.004263724 -0.0005441698 -0.0049547045 0.0007398259 0.0046235328 -0.0032125353 -0.0030816682 0.0050589833 -0.00058908394 -0.0019187038 -0.0013442143 -0.0041015837 -0.0021563433 -0.0019919542 -0.00015645387 -8.984818e-05 0.003621375 0.0035185318 -0.00094641733 -0.0050793528 0.00092110765 -0.0033718327 0.004480231 0.0016572708 -0.0006744158 0.003522826 -0.0016533394 -0.0024337622 0.0002105666 0.004121369 0.0036220297 0.00019568697 0.0024744829 -0.0015829281 0.0050116563 -0.0029396287 -0.0017317813 -0.0024906436 0.004474796 -0.0009911678 -0.0017636087 0.0029141782 -0.004986874 -0.0017352102 0.0011572127 -0.0034798437 0.004966518 0.00015782002 -0.0028250555 0.0027098 0.004229255 0.00045874302 0.00356587 -0.0033060303 -0.0012692155 0.0053254208 0.0033834407 0.0015085669 -0.0013192421 0.0022980673 0.0009773269 0.004552527 0.00026020408 0.0037731426 -0.0021867221 -0.0036861442 -0.0010349811 0.0012047166 -0.001915144 0.003225742 -0.0038170323 -0.0047101635 0.0031984162 0.0030263052 -0.002555099 -0.0022102227 -0.0019752602 0.0002890306 0.004560419 0.0008280443 -0.0018369247 -0.0017196027 -0.0013516069 -0.004448448 0.0038865386 -0.0041619814 -0.0018554347 -0.0038868426 0.0048756865 0.0024184978 -7.879719e-05 0.0018634954 -0.0012672988 0.0053664963 -0.0020250308 0.0022510767 -0.0021772904 0.004856008 0.0050883223 0.0028453243 -0.00042799616 -0.0012070358 -0.004660869 0.005144646 -0.004489057 -0.0034322129 0.0026594033 -0.0011492585 0.0036176783 -0.0043226583 0.004586624 0.0012080715 -0.0041365135 0.0022258563 -0.0029710701 0.0032237573 0.0038048201 -0.0048951437 0.003941097 0.003150608 0.003649859 -0.0035872664 -0.0029927182 -0.004276861 0.0028956854 -0.0021307282 0.0025251517 0.002250969 0.0044441298 0.0012379048 -0.0007759159 0.0007050034 0.0015504995 -0.004779784 -0.0027358225 -0.00022442694 0.0023342352 0.0001391071 -0.0045840736 -0.0008208234 0.003910298 0.0035131916 0.0018659246 -0.0025671648 -0.0015789239 -0.0008109646 -0.002794079 -0.0037647495 -7.3031715e-06 0.0009686257 0.0027622795 0.0025331287 0.0045885625 -0.0029773908 0.004577275 -0.0020701038 -3.9111896e-05 -0.0017557758 -0.0018382589 -0.00046758857 -0.004285589 0.004448931 0.0023325984
esa -0.0010682124 0.0009311296 0.0037876042 -0.0027304315 0.0024100721 8.9332585e-05 0.0015254747 -0.00026660055 -0.004994171 0.003164948 -0.0007442781 -0.0045764814 0.00035794324 -0.0028022865 0.0038695326 -0.0033847129 -0.000933048 8.170846e-05 -0.0020276303 -0.002507567 0.0039652516 0.0007013747 -0.0047315434 -4.0701292e-05 -0.004657791 -0.0018627817 0.0025914547 0.0016931526 -0.0032589475 0.0006892073 0.0031871845 -0.0037970082 -0.0014692806 -0.0015580311 -0.00429651 0.0012828228 0.003471381 0.0011379409 0.00094424444 -0.00079872605 -0.0007087561 -0.0031408789 -0.00035142584 0.0035657978 0.0020332302 8.055823e-05 0.0038431634 0.0014227491 -0.0035160095 0.0038264694 0.0048540602 -0.004758648 0.0032194415 -0.0040032975 -0.0001301456 0.0021073194 -0.00291536 -0.0043344107 -0.003914548 -0.005031016 -0.003560953 0.0046585295 0.0016228327 -0.004460488 0.0037836256 0.0039772163 0.0038413422 0.005340372 -0.0048084543 -0.0005905809 0.0009954356 0.0015176736 0.0029456904 -0.003962946 0.002569043 0.00504723 -0.0039934083 0.0034695659 0.0009997914 -0.0021804573 -0.0010151793 -0.0045013935 -0.0040326063 0.003262117 -0.0019611306 0.004868783 -0.0038340683 -0.0033553552 0.0031444675 0.0040846905 0.001996252 0.0041217958 0.0035653156 -0.0024282814 0.005008082 -0.0028024765 -0.0013549346 -0.0032303932 0.0033560018 -0.0019212489 0.0010665834 -0.00014911727 -0.0005456372 -0.0033360294 -0.003162389 -0.00256467 0.00042477093 0.0010783378 -0.0018115465 0.00045998953 -0.0029862584 0.0045872214 -0.0005569132 -0.0036172653 -0.00066680834 0.003927416 -0.00031207202 -0.0033052803 -0.004015191 -0.003159336 -0.001392267 0.0043161577 -0.003326165 0.00048328316 -0.00037090288 0.002260097 -0.004473915 0.0040942985 -0.0014853082 0.0025777523 -0.0043773656 0.0023951079 -0.004327537 -0.0018423729 -0.00052999076 -0.0015148615 -0.000656472 -0.00031745623 0.0019067796 -0.0014103283 -0.0015406088 -0.003392629 0.0040508946 0.0022299231 0.004514459 0.002423584 -0.002591286 0.0040836167 -0.0034343742 0.0016637243 -0.0014068111 -0.00026514285 0.0018857896 -0.0009782567 -0.0026788923 -0.0003713215 0.00077056675 0.003622642 -0.0030041821 0.0025485822 -0.0016736418 -0.0037291008 -0.0029093751 0.0010231636 0.004239019 0.0042673876 0.004687751 0.003190707 -0.0015063417 -0.001165977 0.0040312875 0.003472914 0.0032730666 0.0033120248 0.0010882021 0.001393445 -0.0045470237 0.004033995 0.0049759657 -0.0033724927 0.00037904512 0.004629486 0.0020408423 0.0036891706 0.004279161 -0.0008075819 0.0045104083 0.0032973164 -0.0003239895 0.00029879282 0.0053036963 0.0028923163 -0.0037039642 -0.0021359557 -0.0013890751 0.0017366547 0.00084088853 -0.0047557442 0.0009989173 0.0048179417
habían 0.0012317301 0.0020509395 0.0008323008 0.004183651 0.005053129 0.0012470856 -0.0010852824 0.0028870467 -0.003936723 0.00427982 -0.0020336318 0.0044727605 -0.004797162 -0.000941957 0.0044203047 -0.0023278673 -0.0010781664 0.0028840317 0.004807365 -0.0012974901 -0.003032017 0.0047408342 -0.004821559 0.00070621574 0.0029089807 -0.0042648935 -0.0026796488 -0.0048695584 -0.00054116687 0.0023814042 -0.0038167841 -0.0015855932 0.004609065 -0.0026538095 0.0018125861 0.00202744 -0.001439845 -0.002718055 0.003900979 -0.0017565433 0.0040659695 -0.0012018535 0.0013953069 0.0031029743 0.0009899483 0.0019261716 -0.0030608051 0.004296381 -0.0005008973 -0.0019694865 0.0026466767 0.0047163954 -0.0033590165 0.00014494458 0.002255215 -0.0016435087 0.00024856263 0.0039278516 0.0035111634 -0.0033300794 -0.0018955872 0.0044184565 8.84795e-05 -0.0046771173 -0.0010240516 -0.0028914989 0.0002826757 0.0011161333 -0.0028444408 -0.0015729872 0.004304656 0.0027224242 0.0020239216 0.0007823321 0.0043704393 -0.002443285 0.0037041423 -0.0011080385 -0.0046802075 -0.005050085 -0.001121438 0.0037491082 0.0006980873 -0.00379283 0.00014604986 -0.0020610406 -0.0017936167 0.0042279926 0.002922633 0.00036022774 0.0013390274 0.0010663862 -0.0045109745 0.0021207656 0.004504579 0.0024616776 0.0013304688 -0.0020556652 0.0015435587 -0.0034989084 0.0014508252 0.0020543004 -6.9374604e-05 -0.00073535164 0.0009857027 9.474444e-05 0.0010420871 0.0051015634 0.0015542556 -6.858235e-06 -0.001656392 -0.0035851642 -0.004899118 -0.0018323888 0.0025434855 0.0037701626 0.00066212215 -0.0033237336 0.0017931196 -0.0022794895 -0.00014243211 0.0049935402 0.004555087 -0.0005339521 -0.0033108825 0.0021277326 0.0042266655 0.0044859108 -0.0011413947 0.0035010504 0.0051388526 -0.0049520535 0.0042075724 -0.0003083967 -0.002526092 0.0022834092 0.004109316 -0.004036929 0.0029750164 -0.0035895174 -0.003333145 0.002290682 -0.0024656658 0.0023076881 0.0036474764 0.00442453 0.0024283752 -0.0045091286 0.0017057434 -0.0043096463 0.00017525579 0.004354548 -0.0025695488 0.0025525703 -0.0034863064 -0.0032258327 0.0046045557 0.0021195705 0.0036826045 0.0018702265 0.0008423379 0.0021369401 -0.0043397434 0.0034331572 -0.0024412493 0.0027721447 -0.0025740738 0.00027372423 0.0020079147 -0.0011838025 -0.0042527663 -0.0027383354 -0.004624946 0.004752595 -0.0018931882 -0.00021694065 -0.0050506056 -0.0018973812 -0.0020813036 0.0017004659 0.0025632016 0.0020547681 0.0052011013 0.0012319954 0.00556387 0.004001253 0.001491121 0.0014409004 -0.0029428955 -0.00086242065 0.0033160397 -0.0041131894 0.0006391313 -0.004369836 0.0053434353 0.00017642503 0.00085425394 -0.002987206 0.0029424676 -0.0036048377
más -0.0036327338 0.0033061302 -0.001836039 -0.00034857972 0.0033566812 0.0019138346 0.0032335378 0.004715774 0.0027530873 -0.0042111957 0.0024908958 0.004040228 -0.002028754 0.0009486605 -0.0016265025 -0.0020039924 0.00420923 0.0002686557 0.0018655333 -0.0039420207 0.0033410764 -0.0019863911 -0.0025305976 0.001155337 0.0050125243 -0.0034277004 0.0019258598 -0.000697733 -0.004107507 -0.0022877248 -0.0037983428 0.0027762542 -0.0010074256 -0.003069457 0.00071094994 0.0026004552 0.005136228 -0.0049947468 -0.00045434214 -0.0012221131 -0.0018307505 -0.0003121933 0.0039280686 -0.0006281292 0.005447668 -2.455614e-05 -0.0006534178 0.003532602 0.0037870419 0.00045174587 -4.5631852e-05 0.0028798974 -0.0025391427 0.0020298262 4.8351167e-06 -0.0033408282 0.0031331116 -0.0024890706 0.0007871598 -0.0035497418 0.0010504867 0.0026076387 0.0028584062 -0.0039250194 -0.0036363318 0.0041355747 0.0013794558 0.0012370565 -0.0037568922 6.42281e-05 -0.0046430877 0.0011000192 -0.0014894179 0.0002790701 0.0024817684 0.0012171932 -0.0028365937 -0.0002736581 -0.0042889556 -0.0021333355 0.0006342544 0.0036410305 -0.003634882 0.0019227243 0.0035794144 0.0047260225 0.003307591 -0.0034903046 0.0020157674 0.004552858 0.002310354 0.0019695472 -0.00024826307 0.0024910679 0.0030125438 0.004879465 -0.0018253135 -0.0047117537 0.00369785 -0.0026876987 -0.0009573148 0.0016017338 -0.0004767235 -0.0025194904 9.235546e-05 -0.0059473827 0.0010840524 -0.0016339506 -0.0030873946 0.0011753453 0.0005534734 0.0012167047 0.00030478375 -0.0049297083 0.005366356 -0.0018460485 -0.00077171746 0.00257965 7.710979e-05 0.0011939473 0.0014499741 0.0018496946 0.0038313207 0.0044472194 -0.0006928724 -0.0014124068 0.0016210092 -0.00400111 0.0041202586 0.0011090295 0.0035439075 0.0011887577 -0.0009308467 0.00014983778 -0.0022721088 0.0049931244 0.0021048153 0.0013392253 -0.0030243108 -0.0046929657 0.0046021603 0.0010683549 -0.0022904673 -0.0044074426 -0.0020413576 0.00029736056 -0.0050405553 -4.9270908e-05 0.0015033655 -0.004768041 0.0003277481 -0.003632683 -0.0018282989 -0.00025149298 -0.0056362045 -0.00092064985 -0.00284961 -0.0030976506 0.0007866258 0.00154815 0.0049109925 0.0047471863 -0.0033677004 -0.0044993428 0.0036859137 0.0031885798 0.0035763925 -0.0017656311 -0.0026570659 -0.0022642398 -0.0046982276 0.0032505076 -0.0013606127 0.0041831937 -0.0024959052 0.00511942 -0.0028904586 0.0046933903 -0.0023835879 -0.0035394493 0.0034870415 -0.004526741 -0.0040741777 0.0028181465 -0.004250066 0.0028533642 0.0019410383 -0.0031000278 0.0025109176 0.0010892759 0.004906431 0.0014042711 -0.0031027943 -0.0017071184 0.003901513 -0.0030642047 0.005050559 -0.0021781959 -0.0024511968 -0.0022232593
